228 100
</s> -0.21234 0.18886 -0.17063 -0.05893 0.11031 -0.017446 0.12887 0.016574 0.3624 0.24518 -0.081028 0.068598 0.19161 0.24741 -0.13334 -0.038527 -0.035307 0.21305 -0.0049088 -0.2243 -0.048213 0.13647 0.093284 -0.079434 0.079254 -0.14651 0.17867 -0.10167 -0.039164 0.32129 -0.1329 -0.066635 -0.18389 -0.21337 -0.27103 0.015257 0.0959 -0.2718 -0.083178 -0.14964 0.23324 0.13561 0.1196 0.01712 -0.11615 -0.057954 -0.11056 -0.095253 -0.18651 0.081725 -0.18112 0.28005 -0.2593 0.06533 -0.020314 -0.17434 0.0055511 0.10977 0.14707 0.14273 -0.16836 0.17806 0.16422 0.21701 -0.11001 0.092831 -0.15616 0.17812 0.25947 0.094561 -0.22753 0.076933 -0.071642 0.071149 -0.034172 -0.11637 0.32572 0.29072 0.04051 -0.14666 -0.21754 0.18026 0.2459 -0.2174 -0.087586 -0.16353 0.005618 0.041109 -0.13776 -0.10461 0.3141 0.11015 0.30846 -0.25885 -0.0099495 -0.26343 0.17891 0.31467 -0.14441 -0.057461 
公司 0.15962 -0.13425 0.13972 0.025358 -0.057088 -0.011062 -0.11341 -0.018415 -0.20872 -0.16183 0.031571 -0.073703 -0.13665 -0.13258 0.071696 0.026864 0.025248 -0.098793 -0.023637 0.13798 0.030461 -0.10564 -0.088615 0.091108 -0.079186 0.086747 -0.11836 0.059232 0.030904 -0.24068 0.069843 0.06342 0.13873 0.14586 0.1723 -0.025359 -0.07019 0.19319 0.079338 0.10418 -0.19385 -0.076214 -0.069311 -0.013182 0.087459 0.019409 0.083978 0.078723 0.12822 -0.025735 0.12099 -0.17121 0.16752 -0.051527 -0.037243 0.13846 -0.030566 -0.076431 -0.084019 -0.0871 0.11994 -0.09296 -0.09117 -0.092754 0.071166 -0.051727 0.09146 -0.13323 -0.16747 -0.095959 0.17611 -0.033414 0.060363 -0.058285 0.00021791 0.080013 -0.21211 -0.1898 0.012527 0.084596 0.13844 -0.13799 -0.16119 0.12876 0.07379 0.11763 0.0028701 -0.040637 0.098374 0.083165 -0.21607 -0.066509 -0.18285 0.18315 0.031959 0.18682 -0.11738 -0.19102 0.096642 0.039603 
有限 0.16454 -0.14741 0.13048 0.031143 -0.063413 -0.026462 -0.11553 -0.02916 -0.19561 -0.15055 0.02232 -0.06978 -0.13368 -0.14077 0.074889 0.038731 0.024366 -0.10769 -0.024412 0.14176 0.042399 -0.12206 -0.098994 0.086834 -0.070969 0.091537 -0.10344 0.051017 0.024752 -0.23123 0.077883 0.071274 0.1303 0.15474 0.17008 -0.0304 -0.070522 0.19779 0.088606 0.11532 -0.19158 -0.081011 -0.059387 -0.016303 0.082422 0.022089 0.084048 0.089764 0.13824 -0.021904 0.1204 -0.16978 0.17058 -0.06208 -0.037882 0.1429 -0.019066 -0.085414 -0.099469 -0.088865 0.12984 -0.087972 -0.090072 -0.093996 0.060301 -0.045015 0.092999 -0.13018 -0.1577 -0.099176 0.18176 -0.034955 0.057975 -0.060742 -0.0064721 0.08581 -0.19938 -0.19656 0.01511 0.071113 0.14662 -0.13469 -0.17089 0.12083 0.06688 0.10716 0.0025678 -0.021273 0.10964 0.072269 -0.22526 -0.069554 -0.1785 0.17824 0.025934 0.1832 -0.11888 -0.18819 0.10934 0.055575 
建筑 0.018738 -0.0082951 0.0089548 0.0024345 -0.0080557 0.0031585 -0.01734 -0.0011091 -0.018901 -0.0146 -5.2586e-05 0.00079115 -0.022236 -0.0095092 0.015851 -0.00063368 -0.0056357 -0.019709 0.0077074 0.018593 0.012417 -0.0069032 -0.012221 0.012305 -0.015433 0.017094 -0.0037826 0.0060571 -0.0022463 -0.033026 0.014822 0.012939 0.016737 0.027689 0.021586 0.0064133 -0.0028639 0.015754 0.0073163 0.01614 -0.017609 -0.013438 -0.010821 -0.0099012 0.0058877 -0.005063 0.012956 0.0089827 0.020892 0.0022963 0.0052861 -0.025073 0.019086 -0.014026 -0.0043116 0.01032 -0.0014488 -0.0055197 -0.0069137 -0.007561 0.0048067 -0.0098959 -0.010254 -0.020628 0.0011038 -0.0022015 0.014812 -0.020469 -0.01989 -0.013683 0.029505 -0.0027496 0.0062157 0.0011532 0.0014296 0.018734 -0.020485 -0.01316 0.0064479 0.0017376 0.016191 -0.012219 -0.011215 0.019736 0.018579 0.015087 0.00038159 0.0036009 0.0041526 -0.00011274 -0.024723 -0.014513 -0.022291 0.025976 -0.0048573 0.018541 -0.013007 -0.01906 0.01067 0.0087018 
工程 -0.019236 0.018491 -0.012031 -0.0032793 0.017304 0.0089982 0.013567 -0.0086872 0.03058 0.021826 -0.0061852 0.00041514 0.0084693 0.019127 -0.0011176 -0.0023666 0.00049325 0.011991 -0.0065225 -0.0062374 0.0048846 0.0077408 0.0030232 -0.015281 0.008462 -0.0068898 0.021477 -0.0040015 0.0037442 0.030371 -0.0036337 -0.013736 -0.021314 -0.017742 -0.019492 0.0081381 -0.0031913 -0.009339 -0.0005139 -0.0096688 0.012443 0.0078237 0.015881 0.010817 -0.0026521 -0.013313 -0.0074364 0.0018244 -0.015279 0.0025149 -0.017875 0.024382 -0.013077 0.0051156 0.0085839 -0.0049096 -0.0047582 0.012668 0.00080461 0.018381 -0.0084874 0.014507 0.0075856 0.013579 -0.00053698 0.011535 -0.0163 0.0038131 0.012236 0.010723 -0.020428 0.0046748 -0.012023 0.011103 -0.0074012 -0.012557 0.016285 0.010629 0.0073069 -0.012472 -0.022194 0.01454 0.017857 -0.011501 -0.0069875 -0.014594 0.0024154 0.0086767 -0.014791 0.00021178 0.028061 0.0085053 0.030831 -0.019459 0.001775 -0.011234 0.01189 0.013482 -0.016708 -0.010625 
家居 -0.057144 0.065793 -0.048166 -0.024987 0.037521 0.011036 0.033925 0.0012347 0.091719 0.084685 -0.020243 0.029686 0.051741 0.060661 -0.046324 -0.01164 -0.014367 0.044429 0.0071034 -0.068095 -0.022273 0.052844 0.044573 -0.035765 0.029985 -0.03878 0.048767 -0.038017 -0.027105 0.09578 -0.041722 -0.018523 -0.06439 -0.070816 -0.082405 0.012841 0.015954 -0.083256 -0.039343 -0.035995 0.067214 0.043963 0.026136 0.010798 -0.021869 -0.010054 -0.029732 -0.044095 -0.064248 0.026927 -0.060412 0.068814 -0.081136 0.029862 0.0084259 -0.052077 0.0060933 0.031599 0.043563 0.033151 -0.058037 0.046112 0.057401 0.049774 -0.026816 0.024697 -0.059668 0.048416 0.068492 0.040336 -0.076663 0.027948 -0.011642 0.0064417 -0.0099246 -0.03932 0.099134 0.077729 -0.0012052 -0.04205 -0.054635 0.061622 0.075269 -0.048077 -0.02304 -0.053467 -0.012601 0.015019 -0.055124 -0.021926 0.095355 0.03104 0.080387 -0.08045 -0.0040947 -0.081649 0.043252 0.090298 -0.05226 -0.029007 
设备 -0.03446 0.037252 -0.02523 -0.020477 0.016359 0.0079053 0.030361 0.0010165 0.06386 0.047463 -0.012115 0.022066 0.026013 0.029718 -0.030141 -0.001357 -0.0066061 0.031415 0.00018698 -0.033754 -0.0018361 0.040722 0.025114 -0.024935 0.01884 -0.023088 0.025406 -0.020258 -0.011141 0.073315 -0.028612 -0.025509 -0.043364 -0.041776 -0.049846 0.0095397 0.019405 -0.045659 -0.019237 -0.027267 0.041707 0.03429 0.024556 -0.00047945 -0.011534 -0.010915 -0.0073637 -0.028663 -0.036926 0.0058786 -0.028807 0.055027 -0.050496 0.014772 0.0067657 -0.037911 0.0011366 0.023432 0.035139 0.020896 -0.031548 0.038091 0.021465 0.025296 -0.025835 0.019841 -0.040751 0.038648 0.045535 0.029943 -0.053536 0.015542 -0.018616 0.00749 -0.0031017 -0.02201 0.060258 0.045952 -0.0039696 -0.027329 -0.031325 0.042576 0.049622 -0.043376 -0.011915 -0.037715 0.0061508 0.013872 -0.019972 -0.019858 0.058712 0.015632 0.052765 -0.052479 -0.0093263 -0.059124 0.030663 0.053194 -0.020621 -0.022217 
机械 -0.043644 0.029871 -0.038352 -0.017448 0.026232 0.00089439 0.018907 0.0034673 0.056338 0.034758 -0.0077798 0.005683 0.031784 0.043676 -0.015739 -0.0099796 -0.0095661 0.030611 0.0018813 -0.029128 -0.0072056 0.024061 0.013912 -0.015109 0.0094171 -0.030963 0.022611 -0.012003 -0.01476 0.058719 -0.02012 -0.0064229 -0.023443 -0.034362 -0.056748 0.0082986 0.020954 -0.052233 -0.0088428 -0.022435 0.045481 0.02978 0.017051 0.010535 -0.011889 0.0012445 -0.0072818 -0.010835 -0.026115 0.019894 -0.036088 0.041886 -0.033748 0.021207 0.0042641 -0.032042 0.0026153 0.018905 0.029382 0.012857 -0.02837 0.019777 0.036266 0.021352 -0.0239 0.0047813 -0.024348 0.027873 0.032115 0.012753 -0.0461 0.01756 -0.020292 0.01019 0.0046174 -0.011823 0.046934 0.054031 -0.0013748 -0.024088 -0.035493 0.02653 0.047418 -0.024294 -0.015774 -0.019413 -0.0024526 0.011858 -0.024916 -0.020701 0.062475 0.014504 0.039844 -0.049918 -0.012272 -0.050654 0.025514 0.040425 -0.018386 -0.014159 
传媒 0.015634 -0.014079 0.016472 -0.0012939 0.0038454 -0.012177 -0.0085158 0.0016385 -0.019486 -0.013007 -0.0070655 -0.0072128 -0.011464 0.0034754 0.0086708 -0.0044682 0.0025027 0.00018182 0.0073564 0.0066723 -0.0064877 -0.010413 -0.0029506 -0.00026323 -0.0048658 0.0020034 0.003262 -0.0054741 0.011534 -0.0088113 0.0055587 0.014241 0.013139 0.0071275 0.0038935 0.00086299 0.0057022 0.014498 0.006824 0.015692 -0.019524 -0.014736 0.0065164 0.006025 0.011545 -0.0082654 0.0075249 0.010614 0.0049655 0.0089779 0.0034522 -0.0041815 0.0021565 0.0036817 -0.0045121 0.015209 -0.0024159 -0.01352 -0.0093923 0.0010319 0.0041258 -0.0037357 0.00042069 0.0053354 0.0012015 -0.0089652 0.014885 -0.012143 -0.01394 -0.0089134 0.014183 -0.010864 0.0052948 0.0059288 0.0088721 0.012516 -0.018157 -0.0049674 0.0096855 0.013464 0.0057269 -0.010903 -0.011172 -0.0011788 0.013219 0.013793 0.0061704 0.00063405 0.0069486 0.0066133 -0.014065 -0.0088027 -0.0016122 0.017264 -0.0033278 0.008598 -0.0092505 -0.0014301 0.013971 -0.00055398 
农业 -0.044943 0.033826 -0.029214 -0.0046646 0.017002 0.010383 0.027939 0.0033065 0.053238 0.036365 -0.019056 0.010013 0.039083 0.026442 -0.030448 -0.014983 -0.0086485 0.020674 0.0022353 -0.039271 -0.013619 0.025542 0.023863 -0.022112 0.0071746 -0.026098 0.03499 -0.025664 -0.0046548 0.051065 -0.017289 -0.021559 -0.029291 -0.044914 -0.053165 0.0020221 0.0074685 -0.035994 -0.017054 -0.025209 0.044621 0.031136 0.0151 0.007954 -0.018203 -0.0040483 -0.010877 -0.021207 -0.034243 0.009051 -0.031927 0.035534 -0.039306 0.011111 0.0071535 -0.026353 0.005571 0.027337 0.033712 0.02635 -0.032762 0.030872 0.027631 0.035722 -0.021569 0.0058439 -0.031438 0.040072 0.038136 0.02285 -0.038025 0.0069485 -0.0099938 0.01522 -0.0036677 -0.015589 0.05164 0.049709 0.0096469 -0.023169 -0.02525 0.025584 0.046368 -0.042481 -0.02359 -0.027527 -0.011765 0.012426 -0.028035 -0.017595 0.057012 0.026207 0.060465 -0.051861 -0.011384 -0.049099 0.021058 0.052967 -0.031206 -0.021519 
开发 -0.0060297 0.013673 -0.016434 0.0042906 0.015662 0.0012696 0.0056478 -0.00063289 0.019941 0.012184 0.0039543 0.0050929 0.010703 0.013915 -0.0099906 -0.0054417 -0.0023362 0.0044643 0.0086399 -0.0056722 -3.0044e-05 0.0075091 0.015691 -0.01543 5.34e-05 -0.016161 0.017575 -0.0093689 -0.0070811 0.021019 0.002535 -0.011777 -0.011556 -0.016093 -0.010006 -0.0070606 0.0048678 -0.016289 -0.0065461 -0.017632 0.0085833 0.0069374 -0.0021352 -0.0014422 0.00058542 0.0072315 -0.0081941 -0.00050651 -0.017577 0.0051642 -0.020209 0.011481 -0.0075761 0.0028067 0.0026146 -0.017799 0.0017545 0.01576 0.015071 0.0088354 -0.003513 0.015905 0.013317 0.018404 -0.010052 0.014683 -0.0052428 0.011269 0.0096739 0.014789 -0.0043006 0.013863 0.002107 -0.0039352 -0.004488 -0.0085433 0.019246 0.024433 0.0066306 -0.01349 -0.014927 0.016128 0.010471 -0.015421 0.0042882 -0.016118 -0.003828 0.0029392 -0.015654 -0.0083805 0.01323 0.009581 0.024912 -0.023384 -0.01044 -0.02471 0.015919 0.015372 -0.013871 0.00021839 
租赁 -0.004465 0.018305 -0.01553 0.0050745 0.0027874 0.0062913 0.017812 0.0015315 0.013165 0.010425 -0.011364 0.0060627 0.018589 0.012643 -0.0020982 -0.0036406 -0.0014287 0.0041829 -0.00016656 -0.010817 0.00048735 0.015793 0.0076877 0.00027172 -0.0018945 -0.0036133 0.0065131 -0.0013986 -0.013383 0.024203 -0.0037985 0.0047393 -0.014128 -0.023869 -0.016319 0.001054 0.0051391 -0.018803 -0.0061676 -0.0073055 0.017529 0.014309 0.013977 0.01005 -0.0015733 -0.00093676 -0.006355 -0.0047304 -0.018675 0.01261 -0.017661 0.017033 -0.010789 -0.0036587 0.0081305 -0.0066918 0.0027307 0.0031029 0.015794 -0.0018681 -0.0040829 0.013339 0.017965 0.020825 0.0014621 0.00084149 -0.013783 0.015701 0.0082561 0.0077683 -0.01916 0.0054769 0.0048057 0.0082546 -0.0085094 -0.0040558 0.017899 0.015238 0.010081 -0.0173 -0.0059557 0.014777 0.008706 -0.0073029 6.2944e-05 -0.0047625 0.0091378 0.0044067 -0.0074261 -0.015944 0.016802 0.01531 0.01888 -0.0068871 0.0048061 -0.017285 0.0016922 0.016692 -0.018298 -0.0099763 
建材 0.0016792 -0.0067099 -0.0070692 -0.005831 0.009683 -0.00050632 -0.0092083 -0.0037437 0.0063085 -0.0022755 -0.003066 0.0083786 0.010316 0.0099046 0.0023466 -0.00097497 -0.0011235 -0.0012065 0.0068808 -0.005764 0.0087069 -0.00032974 0.0041361 0.0023707 -0.0035349 -0.0082871 0.007586 0.007648 0.0077726 -0.0033949 0.00044544 0.003805 0.0065343 0.0011578 -0.010478 0.0031349 0.0091335 -0.0075133 -0.0063657 -0.002167 0.0058832 -0.0044011 0.010483 -0.0073971 0.0072429 -0.0087768 -0.00063592 0.0087099 0.001419 0.0026432 0.0039637 -0.0075515 -0.0021976 -0.0054587 -0.0049053 -0.0059189 -0.0083111 -0.0033142 -0.0067883 -0.0035739 0.0028244 0.007911 0.0064011 0.0014723 -0.0088712 0.0079325 -0.0095706 0.00052359 0.0060853 -0.0059512 0.0039599 0.0072948 0.0057487 -0.0047662 -0.0024695 -0.008372 0.0048896 0.010289 0.0022502 0.0060408 0.00023234 0.0020239 0.003871 -0.0062387 0.0053972 0.00059436 0.0013974 -0.0021885 -0.0052224 0.00082567 0.0025182 -0.0086183 0.00053417 -0.0095681 -0.0031298 -0.0076741 0.0057521 -0.0072341 -0.00034798 -0.0075193 
文化 0.010045 -0.0093184 0.010979 0.007741 -0.0077683 0.0051535 -0.0014 -0.0071648 -1.2949e-05 -0.003719 0.0032971 0.0017557 -0.014043 -0.00028126 0.00012131 0.0073023 0.0063608 0.0041292 -0.010795 0.0025339 -0.0017715 -0.0091869 -0.008604 0.0050834 0.0022969 0.0072773 0.0034889 0.0071329 0.007985 -0.0084544 0.0090532 0.0029023 0.0032422 0.0012431 0.014888 0.0063358 -0.011514 -0.00011812 0.0080391 0.0012857 0.00023417 -0.0018588 -0.0038093 0.0040381 0.010005 -0.0045675 -0.0052414 0.0045926 0.0094246 -0.0046153 0.0045184 -9.8045e-05 -0.0016482 0.0014314 -0.011008 0.0038517 -0.0083512 0.00075221 -0.013941 0.00054972 -0.0033225 -0.0087884 -0.001164 0.0059793 0.0006719 -0.0077093 -0.0010715 -0.00501 -0.002196 -0.0069103 -0.0018763 0.0045898 0.0071561 -0.0034818 -0.005152 -0.0043514 -0.00056552 -0.017508 -0.0064257 0.0014785 0.011632 -0.0012148 -0.015064 0.01262 0.00073628 0.011773 0.0071911 -0.0091807 0.0012295 0.009114 -0.016056 0.0023752 -0.0027687 0.00118 -0.00067626 0.0095099 -0.0073459 -0.010241 0.01377 -0.0013609 
宜泰 -0.0022322 -0.0045634 -0.0011335 0.0073626 0.0093493 -0.011863 0.0049119 -0.0031104 0.012293 0.0090764 -0.0062938 0.0096057 -0.0052769 0.0042934 -0.0079504 -0.002486 -0.001411 0.015049 -0.0055016 0.0033893 -0.0068703 0.0081536 0.0012844 -0.0073942 0.0031294 0.0014651 0.012823 -0.011631 0.0057575 0.012721 -0.0087997 0.0080924 -0.012529 -0.011291 0.0028156 -0.0055238 0.0043298 -0.003186 -0.0064998 -0.013073 -0.0015679 0.010351 -8.829e-05 0.00051739 -0.0057689 -0.0047067 0.0060442 -0.0068087 0.0047034 0.0068514 -0.012234 0.016212 -0.010919 -0.00064062 -0.0089124 -0.011164 -0.00030408 0.00035865 0.0067856 0.0099405 -0.011552 0.0075987 -0.0049162 0.014321 0.0056286 -0.0031423 -0.0039359 0.0058434 0.0055263 0.0046055 -0.012916 -0.00024918 0.0020665 -0.0068418 -0.01108 0.0069756 0.017533 0.016039 -0.00044078 0.0035193 -0.0018364 -0.0040714 0.005785 0.0002716 -0.0042701 -0.0085166 0.0075815 0.0032781 -0.0055355 -0.012257 0.016105 0.0058743 0.0043174 -0.0019103 -0.0081244 -0.016234 0.0016573 0.0094564 -0.0014961 -0.0019014 
昇晖 -1.9375e-05 0.0091905 -0.0062853 -0.0083841 0.0056707 0.0037443 -0.0048151 -0.0068321 0.0039692 0.010284 0.0041253 -0.0086823 0.0047037 0.0091011 0.0040624 0.010353 -0.0038626 0.0061405 -0.0075546 -0.012154 0.0089205 -0.0080651 -0.009879 0.0091012 0.00077809 0.00090939 -0.0010651 0.0080928 -0.0091257 -0.000249 0.00032707 0.0086529 0.0062646 -0.0092135 -0.011003 -0.006461 -0.0058622 -0.011855 0.0011653 0.0065742 0.003421 0.0080701 0.013494 0.0070956 -0.0076189 -0.011691 7.2558e-05 0.0094944 -0.0011567 0.011063 -0.007374 0.017042 -0.0054067 -0.0029016 0.0027616 0.0038615 -0.003379 -0.0044068 0.010494 0.0010387 0.00090585 -0.0023053 -0.003264 0.010669 0.0032754 -0.0029308 0.0066689 0.0052788 -0.0004483 0.0074684 0.0041521 0.010332 -0.01151 -0.0041163 0.0059654 -0.0049391 0.0037271 -0.0025017 0.0051992 -0.0020601 -0.0053604 0.012626 0.0090478 -0.0036015 -0.0034428 -0.0099021 0.0064287 -0.0081091 9.3301e-05 -0.012464 -0.0036968 0.007135 0.012412 -0.007652 -0.0015283 0.00068251 -0.0009536 0.0035865 0.0038844 0.0022432 
装饰 -0.0093878 0.013921 -0.014756 -0.0020273 0.010116 0.0066986 0.0018117 -0.0030091 0.029544 0.019882 0.0022713 0.010616 0.0062753 0.018159 -0.0041445 -0.0087319 -0.00016202 0.01531 -0.0061663 -0.015425 -0.0037805 0.015119 0.016059 0.00045078 0.0059386 -0.0063428 0.016982 -0.0069096 -0.0055995 0.025285 0.0020693 -0.0059641 -0.010774 -0.021288 -0.026666 -0.0056915 0.0047408 -0.020557 0.0036436 -0.0098215 0.0073767 0.01775 0.012892 0.0085093 -0.0026458 0.0055936 -0.0065431 -0.00044237 -0.0043887 0.003592 -0.0048527 0.019062 -0.013805 -0.0020784 -0.00098941 -0.012298 0.0099454 0.0041112 0.0072998 0.0095027 -0.0064151 0.00080894 0.019101 0.014358 -0.0045314 0.0095451 -0.0010759 0.012993 0.020473 0.0021022 -0.018382 0.008774 0.0045816 0.010423 0.0042468 -0.0074063 0.022129 0.015104 0.0099294 -0.0029832 -0.01884 0.01234 0.016648 -0.0045468 -0.0037453 -0.0040958 -0.0090993 -0.0059165 -0.0020865 -0.0014238 0.027376 0.013409 0.027639 -0.0064808 0.0026166 -0.026348 0.0096242 0.024287 -0.0029729 -0.0065911 
源润 0.027592 -0.02591 0.017567 0.0086559 -0.010012 -0.014684 -0.02066 0.0047564 -0.020126 -0.031022 0.002425 -0.0063588 -0.022481 -0.013886 0.0013929 0.015701 0.0090343 -0.011325 -0.0014107 0.0065772 0.0099241 -0.017131 -0.022728 0.0070835 -0.015196 0.02021 -0.0093949 0.0011356 0.0050402 -0.025409 0.0034052 0.0061955 0.018747 0.017302 0.025494 -0.0063739 0.0023944 0.021137 0.012497 0.0059536 -0.014325 -0.010265 -0.0090306 0.0011036 0.010145 -0.0082282 0.011733 0.0064624 0.011956 -0.0072191 0.0070474 -0.015348 0.012558 -0.01135 0.0036431 0.0087041 0.0024051 -0.0063931 -0.013289 -0.0088317 0.0040944 -0.018713 -0.0049774 -0.0020905 0.0048652 0.0031403 0.020154 -0.0058518 -0.02078 -0.003265 0.015492 0.0009288 0.0069815 -0.002506 0.0009905 0.0023633 -0.027978 -0.015231 0.0087573 0.017147 0.024338 -0.018929 -0.021133 0.003518 0.0133 0.014856 0.0043565 -0.0059587 0.021386 -1.5643e-05 -0.018236 -0.015491 -0.016024 0.027191 0.0020899 0.019043 -0.01667 -0.025907 0.0092285 0.012569 
佳博 0.04841 -0.030475 0.027816 0.0050698 -0.017654 -0.015071 -0.029975 0.0057218 -0.05909 -0.042775 0.0054392 -0.02023 -0.030681 -0.026291 0.030891 0.017187 -0.0008741 -0.032316 0.0020521 0.032663 0.012651 -0.031669 -0.026452 0.025047 -0.021349 0.024781 -0.020848 0.009408 0.014201 -0.072379 0.015957 0.0096851 0.043602 0.038483 0.049764 -0.010232 -0.010363 0.038939 0.012812 0.032046 -0.040758 -0.027107 -0.015764 -0.0086065 0.018847 -0.0076101 0.0082247 0.031319 0.035165 -0.013807 0.024793 -0.035064 0.033537 -0.0098213 -0.013269 0.032304 -0.0092077 -0.010312 -0.017383 -0.011141 0.038832 -0.029252 -0.02074 -0.020564 0.018019 -0.0092165 0.03743 -0.03739 -0.050951 -0.018707 0.042285 -0.01305 0.016543 -0.010288 0.0021611 0.025509 -0.050816 -0.050809 0.00063192 0.019123 0.039909 -0.044338 -0.038465 0.033821 0.027466 0.041815 0.0037726 -0.0018919 0.03524 0.018858 -0.057817 -0.012082 -0.043093 0.042134 -0.0041172 0.047379 -0.037296 -0.051014 0.026067 0.017583 
房地产 -0.018107 0.015692 -0.010281 0.00043206 0.019216 0.009973 0.014779 0.00075889 0.034249 0.02927 -0.014506 -0.0014692 0.02178 0.025366 -0.011353 -0.0034503 -0.0074683 0.012573 -0.008928 -0.031236 0.00075452 0.019684 0.020091 -0.0057969 0.0033552 -0.022503 0.013326 -0.0038075 -0.0034665 0.03658 -0.0085273 -0.0082522 -0.014168 -0.016116 -0.032042 0.0011712 7.3198e-05 -0.019763 -0.012374 -0.023829 0.022555 0.019424 0.0034886 0.010976 -0.0056041 0.0058561 -0.0096482 -0.019496 -0.018896 -0.0014676 -0.022751 0.031964 -0.022326 0.0077425 -0.0048225 -0.013308 0.0079744 0.0083291 0.019979 0.0049739 -0.025854 0.017862 0.0074697 0.020782 -0.0063486 0.0047725 -0.01198 0.026409 0.028284 0.019577 -0.031936 0.0055471 -0.012031 3.1531e-05 -0.0079293 -0.013965 0.039324 0.035162 0.0086849 -0.015086 -0.012592 0.020801 0.02525 -0.020093 -0.018748 -0.011298 -0.0082717 0.0035172 -0.0092734 -0.0202 0.03814 0.0094181 0.036823 -0.035275 -0.0057772 -0.026998 0.011668 0.038635 -0.012595 -0.00032148 
超蓝 0.012555 -0.018322 0.013391 0.013437 -0.011513 -0.0018775 -0.00090041 0.0033261 -0.0011361 -0.013091 -0.0025527 -0.0036414 -0.0032019 0.0014602 0.0083852 0.009583 0.003237 -0.0090249 0.0068894 0.0021559 -0.0070047 -0.011212 -0.0011333 0.0075966 -0.0013702 0.0014981 -0.0077883 0.0070883 -1.7395e-05 -0.021232 0.0012509 0.0023306 0.0040937 0.013818 0.0036289 -0.0068918 0.0080654 0.014021 0.012779 0.014762 -0.018739 -0.0040361 -0.0010761 0.0071802 0.0086069 0.0038278 -0.0026053 0.0071685 0.012492 0.0083397 0.010935 -0.013855 -0.0018605 -0.0031031 -0.0092358 0.0037675 0.0064817 -0.0064406 -0.0094717 0.0037329 -0.0033492 -0.0034039 -0.0098869 0.0015971 -0.0049456 -0.0042178 0.0105 -0.0047998 -0.010644 -0.012216 0.0016876 0.0071254 0.0094562 0.0087409 -0.007484 0.013805 -0.0056715 -0.011193 0.0019346 -0.0046331 0.012834 -0.00036149 -0.012503 -0.0027245 0.0092571 0.0091751 -0.00059779 0.0070115 0.0062717 -0.0053309 -0.0075075 0.0046615 -0.0045064 0.01406 -0.0074902 0.0051064 -0.0092508 -0.020268 -0.00017051 -0.0005773 
正恒 -0.0033985 0.013967 -0.008522 -0.0090742 0.006806 0.0035171 -0.00572 0.0031344 0.0075956 0.0029202 -0.0045197 0.010547 0.0047471 0.018553 -0.0088781 0.004963 0.0033793 0.010765 0.0095197 -0.014423 0.0080962 -0.0046442 0.011286 -0.0026338 0.0013329 -0.010126 0.013015 -0.0069345 -0.0082918 0.012953 0.0035765 0.0074298 -0.0060691 0.0013603 -0.0089858 -0.010028 0.00042237 -0.014307 -0.010809 -0.0015513 0.012972 0.014813 0.0032461 0.00076112 -0.0018108 -0.01184 0.00020324 0.00062371 -0.0059322 -0.0036037 -0.0089414 0.019157 -0.006916 -0.0037089 -0.0085668 -0.010837 -0.0030097 -0.0032245 0.0054586 0.0060421 -0.012774 0.0069516 0.010985 0.01093 -0.013349 -0.005253 -9.4954e-05 0.0073111 0.016518 0.0059915 -0.016904 0.0027169 -0.0029114 0.0038769 -0.0072584 0.0013401 0.0033862 0.013938 0.0048212 -0.0034639 -0.0091446 0.0011234 0.012233 -0.017708 0.00069671 0.0032031 0.0024996 0.0017711 -0.0084346 -0.011456 0.019143 -0.0012331 0.0064067 -0.014332 0.0088876 -0.020218 0.0079716 0.013558 0.0037503 -0.0075946 
旅游 -0.015769 0.017982 -0.0024637 0.0029932 -0.0027397 0.0071893 0.0080235 0.0038053 0.027002 0.01818 -0.0044612 0.0010582 0.010329 0.013712 -0.014297 0.0058894 0.004564 0.017151 -0.0065367 -0.0048418 -0.0046464 0.018627 -0.0025912 -0.0075343 0.0059452 -0.0036248 0.015387 0.0025635 -0.0112 0.014596 0.00012948 -0.0057055 -0.00093896 -0.010316 -0.011265 0.0086777 0.011269 -0.0057145 -0.012228 -0.0032903 0.0047639 0.0074224 -0.0042207 0.0035437 0.00036947 -0.0021876 0.0043054 -0.010425 -0.016907 -0.0050399 -0.00062195 0.023026 -0.0085771 0.012162 -0.001913 -0.019251 -0.0038537 0.014207 0.015115 0.0087773 -0.012238 0.0089655 0.00204 0.015407 -0.00098481 -0.0048062 0.0010483 0.010711 0.019708 0.0079157 -0.009149 0.0008941 -0.011274 -0.0045073 0.00030419 -0.010757 0.017007 0.0064574 -0.001449 -0.0084225 -0.013817 0.013828 0.0099091 -0.008852 -0.014713 -0.0092494 0.0091659 -0.0010129 -0.0086689 -0.013013 0.013166 -0.0027087 0.014479 -0.021904 0.0039494 -0.010815 0.010322 0.017218 -0.003227 -0.013165 
国际 -0.020651 0.019249 -0.01495 0.0040717 0.0061371 0.0095215 0.0038842 -0.0044499 0.029167 0.010592 -0.0063054 -0.00041403 0.016682 0.02604 -0.017782 0.0048662 0.0052885 0.0056464 -0.0081236 -0.011416 -0.005022 0.014178 0.0018224 -0.0065829 -0.0029313 -0.015988 0.0027912 -0.0040478 -0.0017356 0.020177 -0.0035748 -0.014619 -0.0071787 -0.010093 -0.01302 -0.0081644 0.014223 -0.012759 -0.012222 -0.0085972 0.0092053 0.0026839 0.0059546 0.0069594 -0.0049999 0.0051133 -0.00095415 -0.0046116 -0.0061193 -0.0041986 -0.0043917 0.024935 -0.021503 0.0015223 -0.0080118 -0.01877 -0.0035064 0.012313 0.0088205 0.016959 -0.004513 0.021452 0.0081787 0.010239 -0.012214 0.0034034 -0.019133 0.011425 0.011349 -0.0024197 -0.013187 0.010223 -0.0076095 0.0058233 -0.0017283 -0.0098611 0.022396 0.011778 -0.0017928 -0.0039783 -0.015319 0.0077944 0.012722 -0.0078189 -0.00044553 -0.003281 0.0011802 0.010534 -0.016427 0.0010049 0.02059 0.0037242 0.031241 -0.022451 0.0022829 -0.01385 0.022586 0.028222 -0.0050388 0.002847 
商贸 0.0086625 -0.0006249 -0.0068531 0.0022374 0.0035159 0.00080736 -0.0069602 -0.0060967 -0.0016833 0.0042181 -0.0075368 0.00093936 -0.0041604 -0.0011641 0.0032682 0.0083967 -0.0033831 0.003383 0.0036524 0.0039495 0.0036205 -0.0011684 -0.001127 -0.0013491 0.0053632 0.00065756 0.0036724 -0.0024141 -0.0055299 0.0046839 -0.00016214 0.00032353 0.0067246 0.010306 -0.00057267 0.0049649 1.7749e-05 0.0041709 -0.0012557 0.0050061 -0.00622 -0.0091983 0.0017303 -0.0066583 -0.0020345 -0.0092325 -0.0044307 -0.0015866 -0.0042089 -0.0004282 0.010818 -0.0086905 0.0097379 -0.0099485 0.0036533 0.011443 0.0093022 -0.0057527 0.0064982 -0.005545 0.0066321 -0.0049706 -0.0053992 0.006237 -0.0027768 0.001577 0.0085339 -0.0058124 0.0056248 0.0073587 -0.0028848 0.0048576 -0.0010288 0.0028103 -0.0075141 -0.0082754 -0.010069 0.0017805 0.00010488 0.0058345 -0.00012544 -0.0053222 -0.011724 -0.003176 -9.2332e-05 0.0097586 0.0028208 0.0038463 -0.0025882 0.0065013 0.005226 -0.00020239 -0.0039888 0.00054428 0.0066432 -0.0051378 -0.0060012 -0.012373 0.0025002 0.0061689 
科技 0.018653 -0.01793 0.015098 0.011288 -0.013047 -0.01075 -0.017052 -0.0037803 -0.01088 -0.021736 -0.001814 0.003031 -0.019741 -0.020801 -0.00081984 0.012039 0.0044407 -0.017403 -0.008832 0.019841 0.0049916 -0.0093353 -0.0092397 0.0043926 -0.0029004 0.010809 -0.0061553 -0.0038167 -0.0035263 -0.02129 0.015356 0.0017848 0.0041329 0.0082069 0.0073733 -0.0062667 -0.013269 0.0070619 0.010467 0.011077 -0.022715 -0.0038623 -0.0028296 -0.0029712 -0.0031069 0.0082104 0.0014707 -0.0010385 0.0069043 -0.0093778 0.0063488 -0.018668 0.023433 0.0032507 0.0010163 0.020202 -0.0081684 -0.0071983 -0.0075773 -0.0059681 0.017127 -0.018961 -0.0090446 -0.0075427 -0.0037989 -0.013939 0.017552 -0.0080796 -0.011778 -0.01183 0.0072485 0.0004918 0.0047256 0.0035533 0.0038767 0.0099971 -0.018591 -0.011985 -0.0025199 0.0068674 0.0079434 -0.019287 -0.015281 0.011348 0.0004714 0.01578 -0.0034661 -0.0048428 0.0022437 -0.0021863 -0.028522 -0.013409 -0.025896 0.020409 0.0021019 0.0071891 -0.015461 -0.017988 0.0021614 0.0035339 
莘鑫 -0.0047344 0.0044718 -0.0026984 0.0077935 0.0071761 0.0037271 0.0029288 -0.0057696 0.011188 0.0095778 0.00144 0.0030196 0.0022197 0.0037422 -0.0026718 -0.0079503 -0.0062065 0.016075 0.0020523 -0.01037 -0.0032283 0.00014763 -0.0040067 0.006212 -0.0053966 -0.010138 -0.00039264 -0.012546 -0.002535 0.0027217 -0.013524 -9.4791e-05 0.0012822 4.2666e-05 -0.013677 0.00076171 0.0037712 -0.01033 -0.0026064 0.0016086 0.0048799 0.01157 0.00015754 0.0073442 -0.013177 -0.0037164 -0.0021269 0.0027193 0.0046687 0.0123 -0.014927 0.012421 -0.0069301 0.0084116 0.0049009 -0.013835 0.00032164 -0.0046425 0.01112 0.0042213 0.00082902 0.0007633 0.014225 0.0058413 0.0040371 0.00034919 -0.0060093 0.014203 0.0026377 0.0040438 -0.015891 -0.0069871 0.0060077 0.0016119 -0.00043016 -0.00011182 0.018576 -0.00026816 0.011944 -0.0017029 -0.0086065 0.0069855 0.016211 -0.0056427 0.00059631 -0.0051949 0.0093207 0.0072982 -0.0090293 -0.0058684 0.013774 -0.0060182 0.019106 0.00038592 -0.0011563 -0.017018 0.0063811 0.011081 -0.0082294 0.0052139 
佳强 0.0014009 -0.014833 0.0035379 0.0036218 0.0061277 0.0053574 0.0030163 0.00045155 -0.0058593 0.0020131 -0.0019355 0.0019147 -0.013027 -0.0058471 -0.0059118 -0.0061794 0.0011008 -0.012224 0.00059601 -0.00028315 -0.00087283 -0.0023138 -0.0010982 0.0039375 0.00070602 0.0098465 -0.0068699 0.0045461 0.0002663 -0.00108 0.00099617 0.011746 -0.0031709 0.0020323 0.016567 -0.0055139 -0.0081024 0.00045436 0.010664 -0.0035776 -0.015955 -0.0046132 -0.004051 0.0068403 0.0029732 -0.0035007 -0.0041304 -0.0019952 0.013144 0.004531 0.013612 -0.012531 0.0075319 0.0019126 -0.010862 -0.0026099 -0.0092629 -0.0015341 -0.010458 0.0075878 0.014031 0.0051189 -0.0071283 -0.011772 0.0011496 0.0022074 0.0034266 -0.011493 -0.015115 0.0048234 0.017261 -0.0074098 -0.0069099 -0.0027441 -0.0038692 0.01374 6.6498e-05 -0.013821 -0.0079522 0.0092385 0.013526 0.0032877 0.0017901 0.01267 0.007301 0.0052106 -0.0068992 -0.0035479 0.014371 -0.0051444 -0.013723 -0.0045056 -0.0040677 0.017246 0.0066768 0.0095474 -0.014314 -0.0044669 0.0079613 -0.0043165 
得淼 0.004544 0.0034048 0.01381 0.008393 -0.0058864 -0.0092177 -0.0066027 0.0065432 -0.011175 -0.005445 -0.0007065 -0.00049055 -0.0043295 -0.0071472 0.0085721 0.0070381 0.0075784 -0.0040804 -0.00030454 0.0047781 0.0042104 -0.0023558 -0.010058 0.0026684 -0.0030909 -0.0012359 0.001812 0.0060128 0.0026867 -0.0060893 0.001903 0.0050569 0.014743 0.011931 0.011981 -0.0083147 -0.0024935 0.0004163 0.0051361 -0.0060098 0.00040798 0.0028417 -0.0021582 -0.003505 -0.0028263 -0.0021764 0.0089737 0.0036314 0.010148 0.0031206 0.012016 -0.011819 0.013754 0.0038089 -0.0075415 0.01171 -0.0065993 -0.010821 -0.00073441 -9.0038e-05 0.0083782 -0.0012731 -0.013342 0.0073224 0.010038 -0.007739 -0.00058476 0.00042644 -0.010807 -0.010375 0.012578 0.0089429 -0.0067515 0.0045344 -0.0055786 0.0033488 0.0014396 0.00046012 -0.0042486 0.0075319 -0.0033289 -0.011856 -0.0059628 0.0068064 0.0070643 0.0046937 0.0049032 -0.00066359 -0.0034941 0.011874 -0.0088726 -0.0030959 0.0023586 0.012733 -0.0074569 0.014193 -0.013684 -0.016524 0.011754 -0.006532 
丹霞山 0.0022145 0.0052357 -0.0035123 -0.0052143 -0.0047196 0.0039709 -0.00085721 0.0012868 -0.0029198 -0.0012521 0.0044405 0.0048625 -0.011108 0.0025053 0.0089435 -0.0038146 -0.0040575 -0.0013362 0.00367 0.0010264 -0.0063644 -0.0019247 0.00060106 0.0084507 -0.0022849 -0.00027966 0.0078161 0.002124 0.0018706 0.0021848 -0.0068547 0.012962 0.0038306 -0.00098286 0.013331 0.0011908 -0.0024316 0.0022296 0.0069534 -0.0013647 0.00098322 0.0029529 0.0024226 0.0079294 0.0020367 -0.0074036 -0.0045005 0.0074972 -0.00064077 -0.0021904 0.0065151 0.0027606 -0.0027934 -0.0035858 -0.0098623 0.0021021 -0.0094255 0.0011262 -0.0052868 0.0072039 0.0051343 -0.0083898 0.0022613 -0.00083656 -0.008505 0.0060151 0.0079491 -0.0098805 -0.003429 0.0012593 0.0082694 -0.009153 -0.0050142 0.0027915 0.0026773 -0.0019032 -0.0089524 0.0058594 -0.0060089 -0.0086477 -0.0032538 0.0015622 -0.00098648 0.0019746 0.0087245 0.0028211 0.011506 0.005398 0.0075756 -0.0086004 0.0042679 -0.0021511 -0.0041513 0.011591 -0.0044713 0.01326 0.0036967 -0.012727 0.0086245 0.0057824 
泛禾 0.0019669 -0.014717 0.011647 -0.0024333 -0.007901 -0.012167 -0.0097042 -0.0035873 -0.01296 -0.00085739 0.0028377 -0.011682 0.0040902 0.0011354 0.0085147 -0.0069967 -0.0055077 0.0042791 -0.0087867 0.011132 0.0017164 0.0022506 -0.0095676 -0.0034242 -0.0003737 0.0042699 -0.0051201 0.0051522 0.0092096 -0.0075738 -0.0082815 0.010456 0.0081492 0.013358 0.016164 -0.00067852 0.0025016 0.0086199 0.011396 0.010805 -0.0093903 -0.00092466 -0.0076945 -0.0041609 0.00013888 -0.0070744 0.0035048 0.0078179 0.013752 -0.0029987 0.010903 -0.008114 0.0033711 -0.0062242 -0.0082198 0.0078425 -0.004253 0.00063977 0.0051505 0.005513 0.010639 -0.00029558 -0.0052313 -0.00492 0.0073494 0.0059343 0.011588 -0.0031024 -0.010722 -0.0083749 0.010071 -0.002058 0.0064857 0.00048674 -0.00044279 0.0035789 -0.0026817 -0.012199 0.011669 -0.0082787 -0.0047948 -0.011125 -3.7822e-05 -0.0026243 0.010787 0.0014755 -0.0063589 0.0012748 -0.0021404 -0.0047019 -0.010747 -0.0085795 0.0024862 -0.0017934 -0.0038066 0.014714 -0.007031 -0.013096 -0.00052027 -0.0076681 
阀门 -0.01517 -0.0017175 -0.011652 -0.0057281 -0.005721 -0.0045394 0.010872 0.0043332 0.018504 0.0053465 -0.0058198 0.0035975 0.0018164 -0.00051664 -0.01008 -0.0088003 -0.0096687 0.0044633 -0.0067112 -0.01063 -0.01039 -4.3126e-05 -0.0011153 0.00086821 0.0043649 -0.010149 0.010247 -0.0064086 -0.0045708 0.02111 0.0051542 -0.0098112 -0.0073364 -0.01517 -0.014547 0.0044066 -0.0052504 -0.014206 -0.00066657 0.0042173 0.010221 -0.00022537 0.011075 -0.0055676 0.0010363 -0.001366 0.0011489 -0.014268 -0.011482 -0.0083426 0.0035481 0.0072966 -0.0074894 -0.0055103 0.00083727 -0.0068931 0.00079521 0.007474 0.010012 0.0014876 -0.014658 0.0039085 -0.00054272 0.0067534 -0.012189 0.0043347 -0.010553 0.012805 -0.0026598 -0.0033668 -0.010722 0.011435 0.0067503 0.0010088 0.0036443 -0.011603 0.008489 0.0069776 -4.0082e-05 -0.010101 0.0033969 0.010449 -0.00020528 0.0043902 0.00039273 0.00014864 -0.0072408 0.0067425 -0.016003 0.0040739 0.015498 -0.0021533 0.0066431 -0.019482 -0.0048412 -9.9061e-05 0.00098348 0.018527 -0.015044 0.0062255 
谊农 0.0071683 -0.0044398 -0.0068986 0.0074984 0.0080982 0.0013417 0.0025862 -0.0056509 -0.0050303 -0.0063596 0.00050324 0.005228 -0.0086709 -0.0010969 -0.0085008 0.007383 -0.0094127 0.0060478 0.0052922 0.0081231 0.0040236 0.0069165 -0.0055874 -0.0079643 -0.0075413 0.003087 0.0099393 0.0053476 0.010077 0.0015775 0.0076376 0.0076476 0.0011652 -0.0036501 0.00040937 0.003163 0.0054416 -0.0015002 0.004168 -0.007153 0.0013022 0.0040467 0.00052984 0.0066359 -0.0096184 -0.010254 -0.004375 -0.0038068 -0.003354 -0.0070902 7.4745e-05 0.0031351 -0.0076433 -0.0037943 0.0039048 -0.010386 -0.0039273 0.010422 -0.00046 0.0046654 0.0061399 -0.0031213 0.0045112 0.00091529 0.0041426 0.0043268 -0.006112 0.0015435 0.0089618 -0.0038743 0.0086133 0.004409 0.008195 0.0060163 -0.010904 -0.0085193 0.010447 0.0054864 0.0089928 0.0039326 -0.004622 0.00058861 0.007033 0.0046844 -0.005327 0.0049322 0.0034321 -0.0010509 0.0073712 0.00053727 -0.0091563 -0.0090361 -0.0047802 -0.0087885 0.0035735 -0.0051721 0.00069079 -0.0043737 0.0044503 -0.0017684 
涵裕 -4.0067e-05 -0.0026482 0.0040933 0.0014728 0.0056747 -0.00046524 0.0062213 -0.0077091 -0.004049 0.0037747 0.00725 -0.0011423 -0.0032367 0.0039279 0.0091126 0.00084189 -0.008305 -0.0027886 -0.0066254 -0.0065969 0.0071743 0.0037015 -0.0046696 -0.0048948 0.0044099 0.004395 -0.0026687 -0.0080863 0.0055973 0.0045339 0.005387 0.0052707 -0.0083138 0.00527 -0.0064227 -0.0087969 -0.0054047 0.0074739 0.0037401 -0.01074 -0.004981 -0.0053915 0.0034177 0.0036544 -0.0063234 0.00028896 0.0030799 0.0077547 0.00025064 0.0019623 0.0089525 -5.0056e-05 -0.0055069 -0.00038902 -0.0095037 0.0056179 -0.005197 -0.0033978 0.0078687 0.010932 -0.0096967 -0.0016996 0.00056291 0.0059655 -0.0050758 0.00053215 0.0050228 0.0025813 -0.0074776 0.0029242 -0.0067782 -0.0030726 0.0089035 0.0039535 -0.0082805 -0.005967 0.0047561 -0.0061852 0.01178 -0.011937 -0.0011762 -0.0062463 -0.00021714 -0.012273 -0.0061051 -0.0079313 -0.0020277 0.0022505 0.0078308 -0.0057806 -0.0057062 -0.0042667 0.010223 0.0025111 -0.0037899 -0.006315 -0.0039191 0.010878 -0.0075715 -0.0033391 
国赣 0.0069269 -0.0052679 -0.001756 -0.0040024 0.01005 -0.0053304 0.00048714 0.0077875 0.0046055 -0.001763 0.0081614 0.0076669 0.0092365 8.7347e-05 -3.8459e-05 0.0087896 0.0077664 -0.00075732 0.0059208 -0.0077926 0.0025595 -0.00053706 0.00072024 0.0021974 -0.0083518 -0.00015456 0.0019023 -0.0018537 0.0093255 0.0070431 -0.0074483 0.0038872 -0.011477 0.006129 -0.0013662 -0.00011654 0.0060073 -0.010134 -0.0063373 0.007837 0.0060322 0.0037096 0.010702 -0.0073911 -0.0086724 0.0034013 0.0047997 0.0010983 -0.007544 0.0087902 -0.0016499 0.0019599 -0.0093197 0.0023914 -0.011263 -0.0061465 0.0035986 0.009733 0.0043364 0.010218 -0.0041849 0.0073529 -0.0010641 0.0036761 0.0028986 0.0040133 -0.0079624 0.010404 0.011741 -0.00030314 -0.0088807 -0.0080536 0.0035463 -0.0015012 -0.0031954 -0.010579 -0.0036513 0.013122 0.010216 0.00063175 -0.0031752 -0.0064551 -0.00099587 -0.0073556 0.0053094 0.0042756 0.0013616 0.0044824 -0.0040032 -0.002058 -0.0064903 -0.003281 0.0062479 -0.0032953 0.0027829 -0.0078068 -0.003232 0.00614 -0.0078677 -0.0011848 
了 0.0047962 -0.0034328 0.0027656 -0.0020398 0.0047355 0.0075791 -0.00072428 0.0039048 0.004279 0.0062966 -0.0067209 0.001074 0.005688 0.012158 0.0033392 0.0088837 0.0049654 -0.0042227 -0.004344 0.0032826 -0.0011219 -0.0081588 -0.0046119 0.0042182 0.0070793 -0.0065796 -0.003792 -0.0039239 0.0039696 0.0024847 0.0030397 -0.0067068 0.00031843 0.006025 -0.0090033 -0.0067816 0.0098403 -0.0019704 -0.0053702 -0.010557 -0.0060422 0.010474 -0.0016057 -0.0048654 0.0045251 -0.010229 -0.010119 -0.0051624 0.0068669 0.0090059 0.0032703 0.013613 -0.0015462 -0.0025971 -0.010169 0.003072 -0.0074038 0.0067759 -0.005029 0.0020095 -0.0031768 -0.0015839 0.0069188 0.002349 -0.0078013 -0.0067028 0.0062203 0.010638 -0.0003392 -0.0034077 -0.0070164 -0.0080624 0.0021298 -0.00029351 0.0086505 0.0089236 0.011079 0.00050742 0.0069246 -0.00092559 0.0013433 -0.0060881 -0.0027601 0.00014447 -0.0077352 0.0029516 0.0099703 0.0040038 0.0021316 -0.0027641 -0.0017035 -0.0012084 0.014367 -0.0046304 0.0054772 0.0022776 -0.0039951 0.010047 -0.0080562 -0.0080267 
喔 0.0035422 -0.0061871 0.0063435 -0.0052791 0.0099437 0.0076894 -0.0034307 0.0067581 0.010455 0.012523 0.0045168 -0.0022653 0.0024258 0.0016934 -0.0060836 0.0050786 0.0058746 -0.0056287 -0.0086965 0.0035208 -0.0053044 -0.0046344 0.0061633 -0.0065955 -0.00027022 -0.0069205 0.0045878 -0.0025538 -0.0081433 0.0069418 0.0027561 0.0031553 -0.0077697 -0.0041744 -0.0019247 0.0022003 -0.0054049 -0.012753 -0.0046785 3.0815e-05 0.00055685 -0.0049191 0.00091133 -0.0054058 -0.004401 0.0074413 0.0022163 -0.001674 0.0060652 0.011301 0.0076558 0.012503 -0.0091376 0.0073899 3.1422e-05 -0.0052354 -0.0072002 0.0016021 -0.0010492 -0.006759 0.0017427 0.0055354 0.011212 -0.005597 0.0061566 -0.0058874 -0.010726 0.0069349 0.0037641 -0.0083568 0.00030609 -0.00066663 -0.0094476 0.007193 -0.00042031 0.0061493 0.0019627 -0.003487 0.0056969 0.0064824 0.0045816 0.0097393 0.0029261 -0.013054 -0.0051871 -0.010327 0.010595 -0.0074652 -0.0031046 -0.0048427 0.0048703 -0.007146 0.0003731 0.00076459 0.0026528 -0.0053158 0.010057 0.0002098 -0.010429 0.0055975 
云祥 -0.0011004 0.0075951 0.0028399 -0.0024348 -0.0039507 0.0082003 0.0045759 0.0031534 0.0030153 0.0051166 -0.001865 0.0074677 -0.007237 0.0079967 -0.011657 0.0063744 0.0067531 0.00076738 -0.0039581 -0.010213 0.0074156 0.0071682 -0.0048892 0.0014708 0.0092621 -0.0025214 -0.0052405 -0.0060154 -0.00030456 -0.0022015 -0.0020741 -0.0060252 -0.0031492 -0.0070919 -0.0095663 -0.0020566 0.0084339 -0.00022404 -0.0073155 -0.0031697 0.0090157 0.0096533 0.0014845 0.0085692 0.0029379 0.004337 -0.010523 -0.0071588 -0.010995 0.0032546 0.002156 -0.0039399 -0.011437 0.001705 -0.00052938 -0.0069244 -0.0066488 0.0041622 0.0083682 0.0078249 0.0024284 0.012467 0.0061619 0.0057357 0.0037293 0.0023807 0.0015948 -0.00030343 0.010966 -0.0029454 -0.0032915 -0.0034544 -0.0082173 0.0077822 -0.0023234 0.0052171 0.011941 -0.0014632 0.0066707 -0.0020878 -0.013354 -0.0054178 -0.00183 -0.011235 0.0040676 -0.0039034 0.0097419 -0.0036388 -0.0075131 0.0020008 -0.0030838 0.0017099 0.0076719 -0.0047047 0.0029888 -0.008114 0.00042721 0.014754 0.0057744 0.0023262 
领冠 -0.0036328 0.004896 -0.011485 -0.0092909 0.0035547 0.0013437 0.0020271 -0.0034425 0.01264 0.00027008 0.0038754 0.0085148 0.0029904 0.011257 -0.011907 -0.0060181 -0.0095099 -0.0038186 -0.00044663 0.0015577 0.0074531 0.0035337 0.0097176 -0.0050258 -0.00057494 -0.013263 0.0021449 -0.00058471 -0.001525 0.012834 -0.010797 0.0075151 -0.01269 -0.0008153 -0.0088414 -0.0049604 0.0055012 -0.0047083 -0.0091529 0.0014975 0.0036493 -0.0049253 0.0085897 -0.0015434 -0.0051462 -0.0071969 0.0016054 -0.0026768 -0.0030466 0.011673 -0.0083131 0.0020653 0.0032049 -0.0085652 -0.011456 -0.0091826 0.0016581 0.0081355 -0.0057217 0.0011138 0.00045511 0.0089463 0.0033362 0.0015461 -0.0062948 0.011342 -0.0052904 0.0031224 0.0098197 3.6719e-05 0.0010117 0.011659 -0.002129 0.0067672 -0.0062854 -0.0048128 0.010373 0.003261 -0.0028847 -0.01336 0.0012906 0.0068836 0.01017 -0.011542 0.0027028 -0.0015178 0.0024677 -0.0081483 -0.0046475 0.0001762 0.011821 -0.0012126 0.017243 -0.0065321 -0.0030453 -0.0050044 -0.0036186 0.0098105 -0.0056873 -0.0096601 
印象 -0.0084968 0.0018911 0.00086708 -0.0076032 0.010418 0.0043495 -0.0022705 -0.0018706 0.0093367 0.013502 0.0069346 0.0098858 -0.0040311 0.002108 0.00446 -0.0054554 -0.0016125 0.0088904 -0.0053519 -0.010621 0.0082637 -0.0016939 0.0033083 -0.0092674 0.0021342 0.0017463 0.010611 0.0077197 -0.0036165 0.016974 0.0003362 0.0094062 -0.0098475 0.0047164 -0.0026093 0.001095 0.011746 -0.00061493 -0.0083461 -0.012876 0.0012047 0.01095 -0.0037548 -0.0010329 0.0047526 -0.0025432 -6.6366e-05 0.0025668 -0.0031533 0.0024755 -0.01061 0.01225 -0.008638 -0.0017427 0.0019385 6.5528e-05 0.0096574 -0.0027405 0.013293 0.0016573 -0.013667 0.0094973 0.0085246 0.0083698 0.0046793 -0.003487 -0.0051128 0.0098231 0.013945 -0.0066472 -0.0040589 -0.0038807 -0.0055194 -0.00076007 -0.0066583 -0.011216 -0.001241 0.01169 0.0025642 0.001584 -0.0019953 0.0091449 0.0028498 -0.013537 0.0063073 -0.0093672 0.0093797 0.0066505 -0.010252 0.00020843 -0.0021794 0.0049415 0.0044893 0.0020646 -0.0052002 -0.015726 0.0018524 0.0058618 0.0063803 0.0024398 
铖阳 0.0070794 0.00041739 -0.0021915 0.004638 0.0038006 0.0029488 0.0041595 0.0042334 0.014008 -0.00010081 0.0026352 0.0068184 -0.0043442 0.010778 -0.0089413 0.0046677 -0.0035498 0.010191 0.0010673 0.0053907 0.0021433 0.0076128 0.0012211 -0.0042068 -0.0077304 0.0042814 -0.0064841 0.00071537 0.0021549 0.0083787 -0.0099861 0.0095457 -0.0057924 -0.0030562 -0.0057884 -0.0057788 0.0058134 -0.015019 -0.0008022 0.004679 -0.0029101 -0.0046172 0.012103 0.003935 -0.01229 -0.0059837 -0.0076131 -4.1756e-05 -0.010571 0.0049625 0.0017168 -0.001996 0.00025929 0.0040891 -0.0026941 -0.013049 -0.0039476 0.0052783 -0.0021018 0.0063473 -0.00096042 0.0070907 -0.0016952 -0.0028861 -0.010092 -0.00023574 -0.00643 0.0075347 0.01138 0.0077332 -0.0013229 0.0075071 0.0017085 0.0063918 -0.011306 -0.010458 0.015906 0.014191 0.0035153 -0.0012895 -0.01371 -0.0025793 -0.0012414 -0.0018204 -0.0027661 0.0073544 0.0078433 -0.0069309 -0.00020932 -0.0082433 0.0037925 -0.0058569 0.0025516 -0.0091894 0.0047993 -0.012643 -0.0025314 0.0053489 0.0012879 0.0071798 
鹏丰 -0.0021191 0.0022902 -0.002649 -0.0039357 0.010411 -0.0085351 0.004477 0.0080326 0.00064278 -4.9667e-05 -0.01062 0.0089157 0.0041127 -0.0041321 0.0069685 -0.0089405 -0.0065904 -0.0047896 0.0057041 0.0014299 0.0071862 0.0022082 0.0032573 0.0082678 0.0020749 -0.0060468 0.0061312 -0.0046742 0.0065679 -0.0031603 0.0069114 0.0056029 -0.0031265 0.0010177 -0.0081085 -0.003272 0.0024674 -0.0094186 0.00098027 -2.4944e-05 0.0045122 -0.00046017 0.0018726 -0.0060327 0.0011762 -0.001417 0.00036398 -0.0072612 0.0074533 0.010798 -0.011343 0.0075255 -0.010091 -0.0063598 0.003399 -0.013078 0.0014545 0.0094644 0.0024094 0.0029514 -0.0026749 -0.0041268 0.012992 -0.0019551 -0.0014472 0.0063194 0.00039938 -0.0040049 0.011991 -0.0065484 -0.0099455 -0.006314 -0.0013779 0.0095478 -0.011659 -0.0003023 0.0040566 0.011009 -0.0033298 0.0028435 0.0013218 -0.0038789 0.0010766 -0.0055284 -0.006578 -0.0093183 -0.0034067 -0.0020484 -0.0090374 0.0030106 0.0062992 -0.0056908 0.01335 -0.011377 -0.0041363 -0.0018403 -0.0002079 -0.0025893 -0.010545 -0.0016781 
鲁 -0.011685 0.0035215 0.005217 0.0018476 0.0042791 0.00738 -0.003161 -0.003512 0.016542 0.0032977 0.0034029 -0.0002246 0.0084983 0.0041584 -0.011708 0.0058724 -0.0024889 -0.0046551 0.0061676 -0.0034373 -0.0025362 0.010796 0.007333 -0.0055954 -0.0078466 0.0054426 0.011463 0.0014439 -0.009818 0.0028221 0.0047925 0.0057118 -0.0090612 -0.011659 -0.0034959 -0.00044296 0.0093264 -0.0066432 0.0030628 -0.010701 0.0023198 -0.0012188 -0.0020733 -0.005393 0.0026664 -0.009398 0.0079972 0.0036396 -0.011161 0.0010249 -0.0086284 0.00096414 -0.0060332 0.0097912 -0.0020848 -0.00088447 -0.0087707 -0.0065274 0.010461 -0.0066002 -0.012107 -0.00028179 -0.0020091 0.0089741 -0.010326 0.0024089 -0.0057599 0.00079622 0.0095119 -0.005263 0.0056774 0.0024919 0.0023862 0.0042065 -0.0095819 -0.010483 0.0037289 -0.0034228 0.0088296 -0.00017197 0.0032906 0.011448 0.011 -0.012572 -0.0086607 -0.00069202 -0.0071183 0.0027907 -0.0015963 0.0077871 0.0093334 -0.0042522 0.0032134 -0.013552 0.0035894 -0.0017629 0.0020637 0.012132 0.0052054 0.0027909 
事盛 -0.0028626 -0.00060374 0.0016265 0.0030197 0.0011109 0.0032702 -0.0050227 -0.0090609 -0.0045562 -7.4417e-05 9.8595e-05 -0.0095495 -0.00016865 -0.0036467 -0.0014078 -0.0091403 -0.0074246 0.0045864 0.0047843 0.00026487 -0.0010573 -0.0047709 0.0043665 0.0014342 0.0074212 -0.0075556 -0.0034695 -0.0091374 0.0073205 -0.0077564 -0.0061479 -0.005613 -0.0094448 -0.0064175 -0.0088213 -9.2718e-05 0.0043482 -0.011789 -0.0042565 -0.00081942 -0.0049299 -0.0022629 -0.0073256 0.0097924 -0.0055189 -0.011468 0.0080933 -0.00017338 0.0023342 0.0044152 0.0059368 -0.0025763 0.0052276 -0.0016949 -0.010762 -0.0087111 0.003308 0.0091646 -0.0067321 0.001094 -0.01163 0.0043248 0.0012956 0.010056 -0.008874 0.011979 -0.0089307 0.0079506 -0.002848 0.0045168 -0.0032508 -0.0019231 0.0019199 -0.0050291 -0.0023848 -0.0072443 0.010145 0.0097565 -0.0028047 0.0051265 -0.0046237 -0.0053188 -0.00033061 -0.013659 -0.0063619 -0.0090549 -0.0079356 0.0046955 0.0091968 -0.0081978 0.0081482 -0.0075764 0.013647 -0.0069521 0.0063561 -0.0092881 -0.0053098 -0.00622 -0.0056665 -0.0043844 
医疗 -0.0061256 -0.0088721 0.0018761 -0.0058162 -0.0060187 -0.0066151 0.00054389 -0.0073412 0.0032762 0.0080479 0.0024031 -0.0042477 0.0084518 0.0076755 -0.0072554 -0.0021333 0.0052343 -0.0032011 0.00555 -0.0069231 0.0096205 0.002166 -0.0021767 0.0053223 -0.00695 0.0056248 0.0010192 0.0015072 -0.0075984 -0.0023602 0.0072838 -0.0067692 -0.0071888 0.0043295 0.0079359 -0.0084904 0.0021681 0.0034214 -0.010031 -0.0075506 -0.0096182 -0.0021409 0.0062634 0.0025495 -0.0097132 -0.0085122 -0.0051816 0.0014581 0.0083049 0.0042309 -0.0070485 0.0054833 -0.0015281 0.0095172 0.0041504 -0.0082839 -0.0063058 0.00048172 -0.00015736 -0.0079629 -0.0012842 0.003791 -0.00316 0.0059568 -0.0045412 1.2326e-05 0.0096242 -0.00070768 0.0051129 -0.0055475 -0.0095851 0.0059456 0.0040649 -0.0036142 -0.00876 -0.0033103 -0.003836 0.0035928 -0.0036622 -0.0066877 0.00074332 0.0068478 -0.0038675 0.0032992 -0.00076271 -0.0053519 -0.0030137 -0.0064154 0.0062558 -0.0026173 0.004104 0.0081055 0.0044727 0.0095941 0.00025452 -0.0032351 0.00013618 0.0090037 0.0034136 0.0037061 
器械 0.0015363 -0.0064789 -0.0051224 0.0025156 -0.0072129 -0.0069507 -0.00085557 0.0015007 0.0058784 0.0028534 0.0088297 -0.00043017 -0.0052865 0.00885 0.0065594 -0.0062056 -0.0038286 -0.0062813 -0.0059839 -0.0098496 -0.0035718 0.0045711 -0.0082405 0.0019232 -0.0040276 -0.0051828 -0.0038884 -0.0066347 -0.0015101 0.0096707 0.0065559 0.010019 -0.0083875 -0.0040225 -0.0038529 -0.00036969 -0.003084 -0.006013 0.0048789 0.0016495 -0.0040963 -0.0085882 -0.0036596 0.0014279 0.0063014 0.0051217 -0.0066572 -0.0047563 0.0032867 -0.0080357 -0.0098266 0.0074862 -0.0080619 -0.0047523 0.0084693 -0.0073735 -0.0070437 -0.0001787 0.001843 -0.0013344 0.0041973 -0.0025013 0.0078295 0.0105 0.0074549 0.0052941 0.004998 -0.0014111 0.0011104 -3.9718e-05 -0.00088495 0.00822 -0.0051498 0.00071041 -0.0084073 0.0043389 0.0062405 0.0068282 0.0071816 0.00064061 -0.0035086 0.0017415 0.0056122 0.0072253 0.009381 -0.009537 -0.0033119 -0.0067253 -0.0025784 -0.0043388 0.00071607 4.4008e-05 0.0038908 0.0051681 0.0082196 -0.00057743 -0.0087019 0.0051167 -0.0026578 7.622e-05 
晨达 0.035473 -0.031942 0.018362 0.0071507 -0.016583 -0.014732 -0.026568 0.0032005 -0.041842 -0.03518 -0.0012567 -0.015206 -0.016076 -0.016672 0.0062929 0.012513 -0.00016534 -0.025526 0.00072804 0.030109 0.0054804 -0.014028 -0.0073438 0.022363 -0.022052 0.019285 -0.010578 0.017997 0.012383 -0.032997 0.0062395 0.0077221 0.024274 0.031565 0.032552 0.005775 -0.012741 0.022115 0.0087582 0.013402 -0.0398 -0.024298 -0.008118 -0.0025554 0.0050886 -0.0071686 0.011491 0.019767 0.031553 0.0031496 0.019694 -0.03568 0.02302 -0.0035898 0.0013557 0.031066 0.0068874 -0.0075108 -0.014788 -0.016722 0.019262 -0.018067 -0.021302 -0.019284 0.020339 -0.0036817 0.028553 -0.019773 -0.027018 -0.0045475 0.028099 0.0011743 0.0015168 -0.0010253 -0.0028689 0.0165 -0.034426 -0.04014 0.0069777 0.0049504 0.020239 -0.018027 -0.027665 0.018155 0.021115 0.027299 0.0061566 -0.0019296 0.02143 0.021006 -0.038999 -0.015625 -0.043205 0.039689 0.0048135 0.036048 -0.029797 -0.03508 0.016476 0.010988 
轩豪 0.018042 -0.014515 0.026056 0.0028875 -0.017754 -0.013038 -0.020993 -0.0096749 -0.031348 -0.026461 0.010299 -0.003429 -0.0182 -0.0099764 0.012414 0.0027189 -0.0040211 -0.010747 -0.00085957 0.011043 0.0035933 -0.029115 -0.012135 0.01023 -0.019686 0.016414 -0.01116 0.0019552 0.016315 -0.029047 0.0031427 0.014817 0.015948 0.029596 0.036913 0.00053187 0.00072515 0.019373 0.010121 0.010761 -0.032624 -0.01859 -0.0076099 -0.0061473 0.0010866 0.00028799 0.0031046 0.023208 0.024757 -0.01295 0.015339 -0.02332 0.014606 -0.017848 -0.0022437 0.026452 0.0040744 -0.0016387 -0.0043246 -0.0046328 0.0093719 -0.015626 -0.02269 -0.022522 0.020291 -0.0073523 0.017366 -0.026408 -0.01517 -0.012593 0.03239 -0.014363 0.012765 -0.0015215 0.0013115 0.023021 -0.034586 -0.03187 -0.0066332 0.0087978 0.012196 -0.020355 -0.017039 0.0097616 0.01149 0.011894 0.0061632 -0.012651 0.017208 0.015262 -0.030319 -0.0066199 -0.036233 0.031967 0.010715 0.034819 -0.010075 -0.02842 0.023231 0.013679 
立刻 0.0022721 0.0021474 0.0014588 0.0084815 0.0022323 -0.0091949 -0.0013261 -0.0075428 -0.010699 -0.0059452 -0.0024876 -0.0067564 -0.0011848 -0.011473 -0.00085056 0.0063709 0.0022239 -0.0069805 -0.0041035 -0.00050322 -0.006419 -0.0031261 -0.0081187 0.0024994 0.002169 -0.0023304 -0.0035456 0.012123 0.00033108 -0.0038996 -0.0060996 -0.0018581 0.0097197 0.0096926 0.00034962 -0.0087445 0.0072323 0.00056043 0.0076145 0.0062754 -0.012468 -0.00047976 0.0043147 0.0052161 0.0040913 0.0052922 0.0096342 -0.0007643 0.0046725 -0.0052456 0.0080404 -0.0077401 0.0080865 -0.010035 -0.0079842 0.010604 -0.0078745 0.0029903 0.004262 0.0036878 0.0068066 -0.0008315 -0.013473 -0.013613 -0.0060817 -0.00027932 -0.0014898 0.00019982 -0.016327 -0.012318 -6.0216e-05 -0.010063 0.0061075 -0.0085056 -0.0084749 0.0088897 -0.019983 -0.0076825 0.010024 0.006206 0.00033097 -0.011369 -0.012269 0.0047155 -0.0050339 0.0037314 0.0074914 -0.00066472 0.015847 0.012776 -0.0037789 -0.00046994 -0.0062159 0.0055011 0.0093492 0.01715 -0.002712 -0.017749 0.0036978 0.0062993 
美 0.010943 -0.012668 0.011562 0.0017974 -0.0028444 -0.0080474 -0.0088432 0.0084255 -0.011041 -0.0095004 -0.0048629 -0.0044932 -0.009925 -0.0038865 -0.0043812 0.0075316 -0.002324 0.0022217 -0.0025222 -0.0010728 0.0071595 -0.013532 -0.0034929 0.0097275 -0.0076844 -0.00099524 -0.0089395 0.01313 0.010623 -0.015882 0.010406 -0.00076328 0.0067204 0.0069465 0.015738 0.0065578 0.007986 0.0028187 0.0031795 0.0019675 -0.001579 -0.0012654 -0.0055983 -0.010063 0.0020451 0.0014459 0.010245 0.004019 0.013424 -0.0057163 -0.0031876 -0.013447 0.010352 -0.0085893 -0.0018457 0.0063524 0.0055545 -0.010086 0.0049073 -0.012334 0.0072931 -0.0070951 0.0026857 0.0057971 0.005246 0.0048426 0.00047357 -0.012513 -0.0032942 0.0022357 0.01285 -0.003632 -0.0052157 0.0023761 -0.0038335 0.0075364 -0.017766 -0.015763 -0.008404 -0.00053386 0.015188 -0.0055688 -0.00096948 0.011259 -0.0051002 0.00050728 -0.00082117 -0.00059543 0.012732 0.012731 -0.019206 0.0010423 -0.0038818 0.019454 0.0087976 -0.00055855 -0.0092907 -0.0090114 -0.00042452 -0.003321 
鹏敏 0.015531 -0.01931 0.015125 0.012022 -0.00054385 0.002166 -0.014217 -0.0046952 -0.014532 -0.010424 0.0053891 -0.011281 -0.0058987 -0.006459 0.0052354 0.00032066 0.011005 -0.0054133 -0.005809 0.0006166 -5.1295e-06 -0.01699 -1.5402e-05 0.0019963 -0.009442 0.011384 -0.015491 0.0027126 0.0084085 -0.0123 0.0099097 -0.0021989 0.016905 0.017466 0.011429 0.0036301 -0.0034915 0.0045789 0.015653 0.01018 -0.01123 -0.011029 0.0011109 0.0073809 0.010364 -0.01123 -0.0052306 0.0075025 0.005685 0.0063787 0.011797 -0.02045 0.010036 0.0033418 -0.010617 0.019227 -0.0054523 -0.01438 -0.0088712 0.002306 0.018495 -0.014623 -0.015343 -0.0054694 0.0070106 -0.0052177 0.00025634 -0.0083206 -0.020076 -0.016896 0.014444 -0.001148 -0.0012885 0.0031289 -0.0055669 0.016447 -0.01385 -0.022412 0.00043035 -0.002179 0.0090979 -0.011877 -0.0094939 -0.00084198 -0.0030285 0.0059208 -0.0053963 0.0031603 0.0082786 0.0059081 -0.021529 -0.0070653 -0.021839 0.011169 0.0031698 0.016198 -0.014387 -0.023192 0.01976 0.0041669 
锦煜 0.0037009 -0.0013172 0.0072188 -0.0057916 -0.01234 0.0050702 -9.1077e-05 0.0075675 -0.0022183 -0.012489 0.0080503 -0.0071873 -0.0064608 -0.0061654 0.012143 -0.00255 -0.0074868 -0.011021 0.0012602 0.008279 -0.0056666 -0.014229 0.00073793 0.013858 0.0012632 -0.00090128 -0.010404 0.01149 0.010998 -0.007989 -0.0014953 0.00058872 0.0061038 0.01583 0.0033242 0.00072551 0.0031069 0.011951 0.011962 -0.0032685 -0.0047971 0.0049663 -0.0068397 -0.0026331 0.0047124 -0.0089821 -0.0030056 0.0071749 0.011613 0.0071186 0.0026003 -0.0033275 0.007828 0.00033233 0.002097 0.010879 -0.0097828 -0.01028 -0.010481 -0.011868 0.0064739 -0.01159 0.0049643 -0.010802 -0.00070571 -0.0026103 -0.00050978 -0.00089053 -0.010509 -0.011424 0.013205 0.0066439 0.0090214 0.0058301 -0.0095567 0.013588 -0.0084915 -0.0021987 0.00016634 -0.0055434 0.002607 -0.0075728 -0.0034759 0.008739 -0.0019603 0.013172 0.010485 -0.0037323 0.0036281 0.01211 -0.014829 -0.0074145 -0.0087764 0.016579 0.0015763 0.013069 -0.0066398 0.0017583 -0.0014241 0.010217 
五金 0.011182 -0.0046734 0.00068785 -0.0020083 -0.0030587 -0.0020591 0.00050977 0.0054059 -0.0099588 -0.0099454 -0.0041499 -0.0046797 -0.0011017 -0.0016588 0.012858 0.0025047 -0.0010189 -0.01605 -0.0050759 0.0087461 -0.0015287 -0.0059878 0.0019828 0.0088102 -0.0022504 0.010222 -0.0052003 0.012678 -0.00022114 -0.021419 0.0083852 -0.00079998 0.012607 0.019054 0.0035272 -0.0023125 0.0050051 0.019041 -0.001717 0.0034767 -0.0091535 -0.013545 0.0029275 -0.0086802 0.013535 -0.0060736 -0.0027276 0.011857 0.0014219 -0.0081712 0.0081959 -0.01536 0.016354 0.00077462 0.0082068 0.00020629 0.0020888 -0.010925 -0.011208 -0.00013186 0.016274 -0.010866 -0.0020416 -0.013986 0.0065494 -0.0019337 0.0010167 -0.0017605 -0.0014592 -0.011598 0.015795 -0.010989 0.0045305 -0.011756 -0.0085277 0.0040483 -0.0066274 -0.015209 0.0063077 0.0016415 0.0079019 -0.010226 -0.010195 0.0013294 0.00088884 0.013802 -0.0041017 -0.0066696 -0.0015964 0.0021754 -0.015092 -0.0077747 -0.010174 0.012572 -0.0050601 0.0011201 -0.0092841 -0.005543 0.0022346 0.003561 
种植 -0.012382 0.016913 -0.0064979 -0.0049892 -0.0049002 -0.0076421 0.0025061 0.0061481 0.018681 0.0084492 0.0013459 0.0088135 0.0093145 0.01003 0.0021069 -0.0080264 0.0087316 0.0068421 -0.010151 -0.0062528 -0.0058962 0.0044357 0.00060456 0.0024016 0.0019932 -0.0021752 0.011705 0.0005173 -0.0037539 0.015539 -0.0066364 0.0052905 -0.013458 -0.017572 -0.016259 -0.0076971 0.0085159 -0.010779 0.0038395 -0.00086295 0.0012018 0.0025681 0.0019562 -0.0081031 -0.0041961 0.0069803 0.0039239 -0.013816 -0.014151 -0.0009719 -0.0067646 0.0078085 -0.00058135 -0.003954 0.0073808 -0.011996 0.0061421 0.0012244 0.013712 -0.0047194 0.0016084 0.011227 0.01177 0.0068133 0.00022185 0.011811 -0.01555 0.016926 0.018544 0.0038448 -0.011969 0.011894 0.0070448 0.0025719 0.0072655 -0.0012245 0.012844 0.0059146 -0.0037276 -0.013387 -0.016656 0.0096284 0.0018616 0.001542 -0.012359 -0.0093857 -0.00084002 -0.0040504 -0.002399 0.0018794 0.018517 0.00022967 0.0061592 -0.011145 0.0045354 -0.0024152 0.0056264 0.0025106 -0.0076055 -7.7124e-05 
贸易 -0.0015779 -0.00081217 -0.0021403 -0.0010349 0.0031083 0.0014749 -0.0090709 -0.0040312 0.0050947 0.0064959 0.0063605 0.0062113 0.0074047 -0.0035586 -0.005778 -0.0072012 0.0088117 0.0061742 -0.0079599 -0.0080156 -0.00098221 -0.0025641 -0.010382 -0.0069851 0.0093278 -0.0090701 0.010317 0.00020738 0.0063085 0.0016801 -0.00062595 0.0075767 0.0051389 0.0030531 0.0068077 0.0003529 0.007881 0.0025412 0.0093994 0.0084449 0.0033678 0.0097661 0.0077784 -0.0074606 0.00049926 -0.0021667 -0.0036027 -0.0015622 0.0092808 0.0108 0.0035452 -0.0012252 -0.0025205 0.0033423 0.0052528 0.0088568 -0.0003991 -0.0087381 0.0095652 0.0097463 0.003774 0.0046998 0.0039212 0.010023 -0.00054142 -0.00072251 0.0056382 -0.0017204 0.0090344 -0.0032483 0.0077091 -0.0066982 -0.00934 0.0062927 -0.0096731 4.9954e-05 -0.0037608 -0.0084969 -0.0074157 0.00072384 0.001392 -0.0017825 0.010521 0.0071483 -0.007031 -0.00077001 0.0012602 0.0079276 -0.0098403 0.0062182 0.0061243 -0.0077291 -0.0054195 -0.0032224 -0.0043079 -0.0067739 0.0017114 0.0028791 0.0038647 -0.0060496 
工贸 -0.0029967 -0.00044712 0.0027317 0.0084458 -0.0029404 -0.010313 -0.01165 0.0055103 -0.0082792 -0.013022 0.01007 0.0063823 -0.0087747 0.0063491 -0.0077851 -0.0060996 0.00073472 0.0022646 -0.00086996 0.010965 -0.0040288 -0.012261 -0.0047943 0.010494 -0.0030616 -0.0066345 -0.0025472 -0.0054315 -0.0016418 -0.0066553 0.0011893 -0.0075447 0.010772 0.0049491 0.0011207 0.0072601 -0.0065747 0.011668 0.0025061 0.0068459 -0.014442 0.0022906 0.0051916 -0.0069941 0.0032588 -0.0089174 0.0081745 -0.0031746 -0.0042953 0.0079451 0.00457 -0.0079282 0.0071006 0.00098876 0.0014287 0.0091234 -0.010313 0.00714 -0.0034999 -0.0028678 0.0042773 -0.0040571 -0.0028177 -0.0024163 0.0038165 0.0032352 0.0059689 0.00027116 0.0020631 -0.0040029 0.011329 0.0045615 0.010497 -0.0021166 0.0039635 0.0038521 -0.00081297 -0.011821 0.0023959 -0.0035397 0.0047614 0.0026677 0.0039827 0.010404 0.0097342 0.0028799 -0.0063872 -0.0024704 0.008797 -0.0021284 0.0035095 -0.0080806 0.0043842 0.0052355 -0.0076246 0.0098858 -0.00073864 -0.0017437 -0.0032008 -0.0077741 
劳务 -0.0058808 0.012217 -0.013604 -0.010341 0.00044724 0.0051816 0.006193 0.00029582 0.011315 0.011572 -0.0013514 0.011878 0.012434 0.013918 -0.0051204 -0.0088117 -0.0025538 0.0117 0.0091245 -0.014113 -0.0050459 -0.0010493 0.013106 -0.0081506 0.0013707 -0.017991 0.0068566 -0.0085117 0.0055836 0.024364 -0.00090818 0.00046876 -0.010956 -0.011159 -0.010338 0.0061799 0.0088704 -0.0055507 -0.014909 -0.016085 0.015012 0.017152 -0.0031992 0.0070471 -0.0022102 0.0043782 0.0013811 -0.0022736 -0.0033453 0.012713 -0.013402 0.0075252 -0.011982 0.013185 -0.0016632 -0.0061885 0.005576 0.013949 0.014115 0.010003 -0.0025042 0.015598 0.01527 0.008894 -0.0033788 0.0064439 -0.00862 0.010127 0.0051221 -0.0020929 -0.010351 0.00010108 -0.0059196 -0.0026452 -0.0085509 -0.0066764 0.024274 0.013028 -0.0078359 -0.015601 -0.0072275 0.010513 0.014413 -0.018006 -0.014205 -0.010182 0.0047976 0.0087525 0.00035938 -0.0048563 0.013766 0.0056586 0.024812 -0.022715 -0.0038499 -0.022291 0.013375 0.010655 -0.0037095 0.0013209 
代理 -0.0024604 0.0062623 -0.0052864 0.004402 0.011789 -0.0028242 0.011738 0.0078504 0.020323 0.016057 -0.0081522 0.014479 0.016058 0.0060177 0.0011415 -0.0012818 -0.0073313 0.018299 -0.001748 -0.009015 0.0045067 0.00064008 0.013422 -0.0055674 0.0082971 -0.013796 0.014235 -0.00093225 0.00088331 0.01189 -0.0064214 -0.0048824 -0.0058352 -0.0032258 -0.011612 0.0071658 0.0058025 -0.018023 -0.011987 -0.014462 0.01341 0.016677 0.0089363 -0.0068614 0.0014982 -0.0071249 0.0035211 0.00049006 -0.0062087 0.0055846 -0.011197 0.018668 -0.011413 0.010003 0.0056405 -0.018446 0.0096945 0.002 0.0057903 0.00020157 -0.010777 0.0013578 0.016985 0.011294 -0.01005 0.012524 -0.016076 0.010961 0.015498 -0.0031234 -0.0082091 -0.0004458 -0.0043004 -0.0053639 0.0043083 -0.010111 0.019556 0.018818 0.0035949 -0.014761 -0.0032461 0.0011827 0.016298 -0.01699 0.0017244 -0.016859 0.00087547 -0.00028392 -0.012246 -0.012139 0.016229 -0.001112 0.022626 -0.011715 0.0092779 -0.0099809 0.0034756 0.011926 -0.0072332 -0.0042147 
用品 -0.037745 0.041149 -0.033615 -0.0135 0.011491 0.010241 0.016639 0.011762 0.055784 0.031253 -0.0068759 0.0091209 0.021804 0.032932 -0.023483 -0.01496 0.0045935 0.018333 0.0035343 -0.023306 -0.011708 0.020509 0.013164 -0.010697 0.021618 -0.016093 0.028254 -0.026224 -0.0050019 0.050237 -0.0091936 -0.021767 -0.041289 -0.038863 -0.05211 0.0039274 0.009572 -0.037673 -0.023505 -0.015937 0.045393 0.013945 0.0072013 -0.0039666 -0.008113 0.0066758 -0.0068987 -0.024114 -0.035622 0.0053135 -0.036626 0.039455 -0.04152 0.022225 -0.0018916 -0.030016 0.0096445 0.019611 0.017181 0.0094281 -0.019336 0.020617 0.017163 0.027977 -0.016238 0.0037396 -0.024589 0.024625 0.04085 0.015178 -0.045315 0.0035129 -0.0062965 0.0013855 -0.011768 -0.019481 0.058394 0.039571 -0.0081798 -0.014474 -0.022008 0.020316 0.036026 -0.029067 -0.011725 -0.022493 0.0051723 0.0085758 -0.031671 -0.016451 0.055847 0.026763 0.043469 -0.046142 0.0019986 -0.042295 0.026158 0.057054 -0.032384 -0.013231 
汽贸 0.01146 0.00031367 0.015684 0.0092022 0.003874 -0.01059 -0.0058443 -0.006017 -0.0059108 -0.0097122 -0.0012442 0.0016389 -0.017011 0.0024483 0.0024818 0.0067265 -0.0013411 -0.0042125 0.0085831 0.0071725 -0.0063113 -0.016661 -0.0047885 -0.0038008 -0.0087965 0.012397 -0.01122 0.012915 0.0073918 -0.020213 -0.0045539 0.012878 0.0033041 0.017699 0.013521 -0.00036733 -0.0065112 0.0019985 -0.0039475 0.012553 -0.010206 0.00040563 -0.01062 -0.0059932 -0.0017994 -0.00062256 0.0033563 0.0099017 0.017669 -0.00034557 0.0061935 -0.012599 0.0092358 0.0058478 0.006062 0.0086737 -0.0035445 0.0014337 -0.015616 0.00016698 0.012002 0.0037646 -0.012563 -0.0040788 0.00075668 0.0068727 0.0033835 -0.011233 -0.0011937 -0.0050297 0.018371 -0.0051187 0.0016073 0.0039716 0.0047636 0.013735 -0.0038729 -0.016376 -0.0018367 0.0048296 0.0077232 -0.015057 -0.012551 0.0087241 0.0043885 0.016624 -0.00077033 0.00036131 -0.0035495 0.0038521 -0.021455 0.0042504 -0.011046 0.020071 0.0022091 0.013301 -0.0032078 -0.021441 0.013822 -0.0052555 
新能源 -0.0065296 0.0023297 -0.0047937 -0.0091515 -0.0047497 0.0084306 0.013222 0.0049224 0.022898 0.0085433 -0.012997 -0.0027587 0.0073733 0.0082956 -0.0070327 -0.0074183 0.0074618 0.0063502 0.0032881 -0.0047016 -0.011567 0.0091837 0.014362 -0.0088928 0.00088659 -0.013197 0.00042822 -0.00040554 -0.0063181 0.020551 0.00094545 0.0018042 -0.0023021 -0.0060545 -0.018512 0.0092772 0.00062194 -0.0034611 -0.0054903 -0.014556 0.016541 0.0098344 0.0042698 0.010675 0.0016154 -0.0044709 -0.0048911 -0.0098372 -0.0022752 -0.005353 -0.011502 0.020766 -0.002705 -0.0060705 0.0079491 -0.00096761 -0.00014304 0.0035198 0.0074558 0.0094715 -0.0083019 -0.00069681 -0.0016986 0.005893 -0.0064784 0.002436 -0.0071779 0.0050085 0.019045 -0.0020074 -0.018026 0.0074701 -0.01154 0.0058858 0.007805 0.0012184 0.016987 0.0098998 0.0042756 -0.0078986 -0.01374 0.0055745 0.0061824 -0.0017871 0.0047293 -0.0099165 -0.0045713 0.0070766 -0.0031056 0.0040275 0.020099 0.01159 0.016704 -0.018963 -0.0060565 -0.0057907 0.0033803 0.004854 -0.0067095 0.0025827 
鞋业 0.0026208 -0.0027285 -0.0036264 -0.0024233 0.0024951 -0.0018993 -0.0034839 -0.00023837 0.0063729 0.012028 0.0046622 0.0071898 0.0082851 0.00083991 -0.010253 -0.0085171 0.0089138 0.0081389 -0.0076904 -0.008266 0.005604 -0.0070284 -0.0054225 0.0034722 0.0025722 0.0038202 -0.00080751 -0.0022856 -0.0048127 0.0073285 -0.011962 -0.0068806 -0.0080272 -0.012061 0.0027303 -0.00045652 -0.0015897 -0.015342 -0.0078795 -0.0018483 -0.0024538 0.011443 0.0023338 -0.008308 0.0001497 0.0051092 -0.009669 0.0049758 -0.0022796 -0.0060206 -0.0013574 0.013932 -0.0084985 0.0012401 0.0030251 0.0055747 -0.0099811 0.0099732 0.0096007 0.008435 -0.008144 -0.0024098 0.01205 0.0073184 -0.0097777 -0.0069482 -0.0015805 0.0068256 0.0098568 -0.0063295 -0.0011072 -0.0012798 -0.0080963 0.0023775 0.0060697 -0.0046137 0.012716 0.007567 0.0038247 -0.0044011 -0.0049539 0.0131 0.010676 -0.0084421 -0.0082429 -0.00038051 -0.0026963 0.0073211 0.004606 -0.0046462 0.011588 0.010191 0.012884 -0.011917 0.0066122 -0.010153 0.0099152 0.016329 -0.0053428 0.0037234 
货运 -0.0080688 0.018755 -0.019696 0.00096652 0.01519 0.00059026 0.012844 -0.0032017 0.01715 0.008879 0.0053258 0.010159 0.011326 0.013664 0.0017171 0.0010448 0.0025044 0.016286 0.0053695 -0.010996 0.00012174 0.011254 0.0050117 0.0033182 -0.0031921 -0.0036114 0.0062908 -0.0048645 -0.010495 0.020134 -0.009244 -0.0084434 -0.0052643 -0.019861 -0.0085264 0.0076103 0.0039461 -0.0051765 -0.0048647 -0.0062208 0.0062738 0.012113 0.0043439 0.0092129 -0.010228 -0.0017803 -0.012316 -0.0019595 -0.014525 -0.0021462 -0.012675 0.018278 -0.018313 0.014141 0.00066751 -0.014953 0.0098296 0.00087751 0.0021936 0.015177 -0.013911 0.012545 0.014605 0.0037967 -0.00080511 0.013756 -0.018245 0.016359 0.016855 0.013713 -0.014229 -0.0021491 0.0059053 0.0069036 -0.010977 -0.0025398 0.012745 0.020411 0.0013979 -0.0029905 -0.0090668 0.012733 0.015722 -0.019379 -0.013372 -0.0046524 0.00029055 -0.0066641 -0.014365 -0.01478 0.010371 0.0057462 0.0091382 -0.0066432 -0.0061418 -0.024068 0.018954 0.014793 -0.018566 -0.0080473 
进出口 -0.0077777 0.008413 -0.0036816 -0.0097442 0.0084491 -0.010124 -0.0020505 0.0039936 0.0050491 0.0059854 -0.0044712 0.0031321 -0.0014522 -0.0081183 -0.0067719 -0.00010049 -0.0059767 0.0060424 0.00011922 -0.0058553 0.00076428 -0.007361 0.0025921 -0.0086813 -0.0065673 0.0020879 0.0043926 0.0045382 -0.0013638 -0.0014977 -0.007026 -0.0056614 -0.0079056 0.002988 0.0010869 0.0018485 0.0048131 0.0053225 -0.0035127 1.998e-05 -0.0020392 0.0043656 0.0053056 0.0035668 0.0038145 0.0023474 -0.0056891 0.0092628 -0.0081024 0.0046864 0.0044817 -0.0022054 -0.0054504 -0.0070701 -0.0079944 -0.0031253 -0.0079924 -0.0036268 0.003382 0.0087083 0.00084282 0.0017804 -0.0056067 0.0020055 0.0088412 -0.0020738 -0.0043156 0.010006 -0.0072289 -0.0048827 -0.0070812 -0.0012963 0.0021601 -0.0053355 0.00067681 0.0034888 -0.00029683 0.01047 -0.0078051 -0.0040842 -0.0064256 -0.0026481 0.0098536 -0.010765 -0.0047968 -0.0061757 -0.0031958 -0.0032206 -0.0057216 0.0082502 0.0002076 0.0047213 0.00504 0.0092505 -0.0060935 -0.0022661 0.0041152 0.0075861 0.0022941 0.0077278 
阀 -0.010482 0.0029582 -0.01086 -0.013186 -0.0025466 -0.002638 0.015167 -0.0046292 0.023736 0.0022658 -0.00071462 0.011027 0.012504 0.0015424 -0.0071561 -0.0064724 -0.01042 0.013563 -0.0043301 -0.0067565 -0.0068514 0.0021131 0.015876 0.0038448 0.0048674 -0.00015121 0.014618 -0.0074587 0.0055693 0.025947 0.0025383 -0.0070498 -0.0038411 -0.020195 -0.004265 -0.0033028 -0.0069178 -0.0041389 -0.0061532 -0.011246 0.021196 0.015193 -0.0014899 0.005786 -0.012543 -0.0052918 0.00054096 -0.012777 -0.0052818 0.0073311 -0.011118 0.0092804 -0.01239 0.011177 -0.0060544 -0.004893 -0.0085923 0.006189 0.0072288 0.013722 -0.00027135 0.015821 -0.0005652 -0.0019962 -0.0016509 0.012203 0.0014711 0.00029469 0.019555 -0.0018382 -0.011874 0.0089667 -0.0020436 0.0033444 0.004163 -0.012784 0.016971 0.020289 -0.0034948 0.0051621 -0.0016621 0.0070844 0.0013987 -0.01328 -0.013148 -0.0080288 -0.0027139 0.0014599 -0.0043771 1.9854e-05 0.022627 0.0092595 0.0086862 -0.016499 -0.0049049 -0.017526 0.0042988 0.0040199 0.0016013 -0.012022 
专业 -0.0027519 -0.00084783 -0.0042443 -0.0064498 -0.0055838 0.0032719 -0.0012333 -0.004901 0.0027868 -0.00086066 0.0031056 0.0088863 0.0084135 0.0020377 0.0092859 0.0061214 0.0084013 -0.0096898 -0.0040822 -0.00024447 0.010238 0.0050517 -0.0014937 0.004252 -0.0048598 0.010486 -0.0071176 0.0089979 0.0029289 0.0005663 -0.0050436 -0.0070182 -0.0016751 0.001883 0.00064434 -0.0029404 -0.0070402 0.0022115 0.0058359 0.010609 -0.0061209 0.007893 -0.0078113 0.0082788 0.0033578 -0.0026605 -0.0039162 -0.0036177 0.0031819 0.0055883 -0.0026885 -0.0016683 0.0012379 0.00079304 -0.010127 0.0078544 -0.001784 -0.0037733 -0.01065 -0.007263 0.0044153 0.0022408 0.0010136 0.006994 0.0082905 0.007676 0.0071903 0.0062546 -0.0090119 -0.002129 0.010529 -9.2422e-05 0.0043799 -0.0091656 -0.0068171 0.0090777 -0.002789 -0.00046727 0.00012744 -0.0093289 0.0056416 -0.00081078 0.0047664 -0.0033179 0.00041868 0.0070111 0.0050901 0.0097155 -0.006891 0.0090188 -0.0073457 0.0089878 -0.0041067 0.00096044 -0.00591 0.0033063 0.0083752 -0.0033273 0.005761 -0.0033111 
早 0.0033717 -0.0033229 0.005416 0.0086312 -0.0069788 0.0025523 0.0014015 -0.00075259 -0.0068477 -0.0098602 0.0039145 0.0010751 -0.0092009 0.0020674 0.001474 0.011164 -0.0048367 -0.0102 0.0066679 0.0019976 4.3182e-05 -0.0085018 -0.0044647 0.0025281 0.0032746 0.0052256 0.0018283 0.0090613 -0.0021313 -0.012255 -0.00036333 -8.1285e-05 0.006787 0.0026825 0.012305 -0.002831 -0.005488 0.0076574 0.0064859 0.0038564 0.0041422 0.0069862 0.0083428 0.0092472 -0.0050995 -0.0016882 -0.0007262 0.0032935 0.0061771 0.0069964 -0.0030611 0.0025974 -5.8527e-05 0.0045124 -0.0071619 -0.0060823 -0.0012157 -0.0034428 0.0056972 0.0081417 0.00068965 -0.012047 -3.9893e-05 -0.0090805 -0.0054957 -0.0056475 -0.0034996 -0.0054381 -0.006106 0.0032853 0.0038992 0.0051517 -0.0022109 -0.0079673 0.007434 0.0086305 0.0043314 -0.0091446 0.0069132 -0.0049973 -0.001536 0.0054871 2.5683e-05 -0.0043015 -0.0041749 0.010257 0.010724 0.0064425 -0.0041721 0.0046518 -0.00585 0.0062345 0.00083272 -0.0008163 -0.0075555 0.0055151 -0.0095979 -0.0061078 0.011163 0.0070251 
大健康 0.00098912 -0.011369 0.001744 0.00793 1.2002e-05 0.0046802 -0.01252 0.0036386 -0.0035662 -0.013384 -0.007289 -0.0068769 -0.0031016 0.00034272 0.010175 0.010589 0.0062905 0.0063346 -0.0086902 -0.0035767 -0.0016322 -0.008174 -0.0041013 -0.0072044 -0.0030649 -0.004336 -0.00083779 0.00012993 -0.006986 -0.012764 0.006931 0.0011519 0.0079889 0.012213 0.0071637 0.0038557 -0.0071647 0.0020322 0.0082105 0.0017357 -0.0075413 -0.0079874 -0.0015751 0.0085738 0.0018156 0.0072117 0.010703 -0.0025281 0.0056484 -0.0017021 -0.0037794 -0.0053374 -0.0062491 0.005185 -0.0030786 -0.0016096 0.0067254 0.0034184 -0.0075577 0.0030434 0.0094843 -0.0086633 -0.0064603 -0.0055362 -0.0048046 -0.0021728 -0.0048185 -0.0083162 -0.0035163 0.0026498 0.0073731 -0.0025781 -0.0034198 -0.00014784 0.00061173 -0.004754 -0.004884 0.0022843 0.0061069 3.2865e-05 0.0010965 -0.010652 -0.0043086 0.011301 -0.0044253 -0.0014156 0.0034123 -0.0031835 0.0047135 0.0079441 -0.001561 0.0080757 -0.0074896 0.0013674 -0.0035631 0.014577 -0.0095304 -0.010075 0.0056263 -0.0057782 
广告 0.002612 0.0068299 0.00916 -0.0037235 -0.0060965 0.0037726 0.006356 -0.0017905 -0.0077789 -0.003492 0.0070562 0.0089147 0.0067603 0.0042733 -0.0027455 -0.0071547 0.0014863 -0.0046551 0.0065736 0.0011149 -0.004156 0.0044568 -0.0026912 -0.0036106 0.00012281 -0.007998 -0.0043724 -0.0078793 -0.0048789 -0.00090135 -0.0047359 0.001637 -0.0059172 -0.0025256 0.0037164 -0.0089404 -0.0052195 -0.0090308 0.0096985 0.0059038 -0.0089949 0.00090412 0.0074971 0.00050992 0.0004394 -0.0047112 0.00047552 -0.0016629 -0.0099496 -0.0071587 -0.0090454 0.010978 -0.00096136 0.0052504 -0.009471 -0.00023706 -0.0050405 -0.0060809 0.0034293 0.0027558 0.0086198 0.0051194 0.0018905 -0.0071399 -0.0040197 0.0097056 0.0032703 -0.0010054 0.0051124 0.0085731 0.0077206 0.0099424 0.0081105 0.0018386 0.0071667 -0.0050455 0.010718 0.0032775 -0.0045299 -0.0053991 0.0086443 -0.0019191 0.0018727 -0.00040531 0.0096636 -0.0050668 0.0093236 -0.006382 -0.0080127 0.0016479 -0.0053598 -0.00082503 0.008026 0.0032886 -0.002068 -0.0089169 -0.0072662 0.0069515 -0.0044383 0.007577 
中 -0.00075352 -0.0012616 0.00063293 0.008049 0.0060934 0.0049998 0.0015952 -0.0060328 -0.0020799 -0.0031566 -0.00037327 -0.0042525 -0.0084937 -0.011883 -0.00034215 0.010374 0.00066905 -0.0025576 0.0079213 -0.0031921 -0.0012428 -0.011767 -0.0043365 -0.0067757 -0.007255 0.0060679 -0.0067508 0.002624 0.0053099 0.0036072 0.0050323 0.0028022 0.0064085 0.0032029 0.013783 -0.0033833 -0.00017171 -0.0050112 0.0041105 -0.0064911 -0.013374 -0.0015661 -0.0015089 0.0071969 0.0089389 0.00076617 0.0061281 -0.0030924 -0.0015341 -0.0064149 -0.0057347 -0.011639 -0.0029179 -0.0032709 0.00092311 -0.00070804 -0.0019878 0.0016089 -0.0045082 0.0083613 0.0016188 0.0018887 -0.0024373 -0.0015432 -0.006293 0.0018246 -0.0036367 0.0026787 -0.0033279 0.0047205 -0.0045997 0.0055054 0.0082332 -0.00655 -0.0097836 0.00066589 -0.01268 -0.00035828 0.0053968 -0.0023784 -0.0049356 0.0041468 0.0024869 0.0066827 0.0045966 0.0012751 0.010586 0.0014093 0.0086974 -0.0070763 -0.015532 -0.004525 -0.0043683 0.008523 0.0044301 0.0040373 0.003752 -0.0068346 -0.0039177 0.0032333 
整体 -0.034076 0.03482 -0.041836 -0.017455 0.025596 0.0032199 0.017315 -0.0039162 0.057624 0.03857 -0.0014695 0.021357 0.026177 0.027674 -0.030688 -0.016232 -0.0035092 0.028602 -0.0066444 -0.033354 -0.012172 0.028693 0.019183 -0.01596 0.019082 -0.034353 0.02349 -0.021347 -0.0081861 0.057972 -0.011185 -0.023135 -0.036693 -0.035258 -0.052219 0.0049396 0.008124 -0.049304 -0.027454 -0.030628 0.046573 0.032404 0.015077 0.0086835 -0.0075744 0.001282 -0.017824 -0.016841 -0.025978 0.0025668 -0.035966 0.034321 -0.031421 0.020479 0.0052818 -0.031038 -0.0024361 0.021753 0.026538 0.023074 -0.028028 0.031222 0.034757 0.036135 -0.020817 0.0038601 -0.032328 0.02689 0.032375 0.024941 -0.042287 0.011668 -0.01044 0.011253 0.0035106 -0.026694 0.047537 0.052456 0.0065357 -0.013942 -0.028146 0.030923 0.044666 -0.036457 -0.02451 -0.034459 -0.0072498 0.015307 -0.033477 -0.016868 0.062689 0.017649 0.046887 -0.05737 -0.0067793 -0.054848 0.020404 0.048105 -0.031211 -0.014798 
单向 -0.01166 0.0040537 -0.012319 -0.0012543 0.0084282 0.010476 0.0022344 -0.0031796 0.0060346 -0.0022238 -0.0058098 -0.0060322 0.014509 0.0072022 -0.0049585 -0.0064782 -0.0035839 -0.0032823 0.0033739 0.0015474 -0.00058618 0.014834 0.0033988 -0.00044824 0.0061134 -0.0050749 -0.0011369 -0.0037771 0.004573 0.016899 -0.0082041 0.0020845 -0.0019259 -0.011466 -0.0084341 0.010402 0.0085219 -0.014087 -0.012349 0.0046777 0.0077918 -0.0008716 -0.0059554 0.0084945 -0.009177 0.00063413 -0.0059379 -0.00038276 -0.013454 -0.0078389 0.0015015 0.0065442 -0.010976 0.0023843 0.0063703 -0.0038159 0.0067352 0.0046422 -0.0019639 -0.0051694 -0.013723 0.012345 0.0037157 0.012803 -0.010093 0.010402 0.0025203 0.011458 0.0051725 -0.0065027 -0.0064422 0.001179 0.0016403 0.0074021 -0.0069075 -0.009932 0.015063 0.0050925 -0.0093061 0.0058094 -0.00016395 0.0021284 0.0061745 -0.00070353 0.0066132 0.0005886 0.0025875 -0.0055743 -0.0070234 -0.0041816 0.0031896 0.00097646 0.0098576 -0.0071737 -0.0046318 -0.0022381 0.011074 0.00011217 0.00015602 -0.00048427 
龙头 -0.013056 -0.0027621 -0.004597 0.0019629 0.0086912 0.0036275 0.0051978 0.0091739 0.0020497 0.0013637 0.0012229 -0.001525 -0.0036603 0.010822 -0.0098004 -0.00017206 0.004845 -0.0033551 -0.0079496 -0.0035809 0.0025324 0.015075 -0.001672 0.0040456 0.0018708 -0.010436 0.013984 0.0045928 0.0068982 0.0066049 -0.0061176 -0.0095167 -0.0040945 -0.013827 -0.016937 0.0089734 0.0038008 -0.01517 0.00079801 -0.011149 0.017384 0.01255 -0.0022821 -0.0023378 -0.0079789 -0.0065717 -0.0063342 5.38e-05 -0.00086598 0.0086351 -0.014187 0.0079613 -0.0099996 -0.0060264 0.0092239 -0.011203 -0.0057687 0.0050866 0.0058952 0.0045745 0.0031223 0.013651 0.0096032 -0.0016757 -0.0028163 0.0043261 -0.011616 0.0081438 0.0042976 0.0030483 -0.0032381 -0.0042918 -0.0047792 0.0038422 -0.0031539 0.0042492 0.015384 0.011948 -0.0030499 -0.0021956 -0.0024264 0.01405 0.013067 -0.010782 0.0052017 -0.0079556 0.0033921 0.0013432 -0.0064117 -0.00283 0.0026341 0.010228 0.017079 -0.01747 0.00082875 -0.012847 0.0008537 0.015863 0.0025067 -0.003723 
食品 -0.0042095 0.010701 -0.011666 -0.01025 0.0033222 -0.00775 0.012769 0.0070124 0.010802 0.014188 -0.0061775 -0.0035662 -0.001237 0.0011658 -0.0021206 0.0018492 -0.0089125 0.014639 0.0082166 -0.0063686 0.0048358 0.0021959 0.012235 0.0022574 -0.00068026 -0.0032195 0.01353 -0.0013922 0.0045975 0.0070624 -0.0029317 -0.0034676 -0.015677 -0.013934 -0.0036403 -0.00055208 0.010855 -0.0049227 -4.7078e-05 -0.011702 0.0031008 -0.0041737 0.0028472 -0.0032473 -0.0098059 -0.0041707 -0.011408 0.0020192 0.00016091 0.0056178 -0.01359 0.0082091 -0.01583 -0.00674 0.0050055 -0.010835 0.00143 0.01339 0.0086362 -0.00084889 -0.0071958 0.011897 0.010627 0.00084095 0.0064377 0.012168 -0.0081274 0.014432 -0.0015256 0.0079278 0.00017791 0.00012849 -0.0085079 0.010772 -0.0092299 0.0012734 0.017574 0.018001 0.0028653 -0.0071146 0.0026607 0.0031469 -0.0016178 -0.007883 0.00065362 -0.0084237 -0.0065093 0.0082774 -0.0076364 -0.0042266 0.018253 0.0017055 0.0026734 -0.010953 -0.0016237 -0.010909 0.011931 0.018399 -0.0049656 -0.011714 
衣柜 -0.033687 0.027522 -0.029143 -0.014837 0.0068574 0.0086868 0.014571 -0.0029965 0.04923 0.036036 -0.012988 0.019862 0.028223 0.034484 -0.017645 -0.0055111 0.0016496 0.013478 0.0085377 -0.034516 -0.014031 0.027705 0.02187 -0.0074291 0.0077408 -0.010257 0.019242 -0.0085166 -0.010507 0.047984 -0.0065607 -0.014319 -0.017606 -0.022496 -0.0332 0.007978 0.011478 -0.024462 -0.017102 -0.018015 0.028389 0.012271 0.0033241 0.012073 -0.017707 -0.0069978 -0.0040604 -0.0069044 -0.029827 0.0055926 -0.031579 0.023954 -0.038961 0.014162 -0.0028427 -0.02012 0.011627 0.0060655 0.013409 0.012663 -0.018712 0.014753 0.014599 0.025125 -0.0039661 0.0047471 -0.026751 0.02613 0.02686 0.023939 -0.030312 0.0012104 -0.0035454 0.0028943 -0.0033912 -0.018305 0.049567 0.041411 0.00051497 -0.0093059 -0.01642 0.019925 0.022135 -0.023646 -0.011333 -0.021556 -0.011337 0.0059869 -0.026878 -0.013111 0.050408 0.014336 0.040903 -0.034611 -0.0057423 -0.028694 0.022117 0.033613 -0.023198 -0.0026004 
制造 0.0076504 -0.0043379 0.010161 0.010438 0.00095937 -0.0090638 -0.0085738 0.0065011 0.00068064 0.000529 -0.0025282 -0.00897 -0.010466 -0.0062416 -0.0071592 0.0023606 -0.0032908 0.0070188 0.0061783 0.01226 -0.00096525 -0.0050219 0.0055797 0.011555 0.0012168 0.0047964 -0.00082992 0.0028816 -0.0024308 -0.012158 -0.00036954 0.0018144 -0.0047541 0.0075731 -0.0032 -0.0054054 -0.0049942 0.010268 -0.0038711 0.00098454 -0.013638 -0.011665 -0.011691 0.00055328 0.006792 0.0075885 0.011368 -0.00149 0.0047923 -0.010349 0.0094248 -0.0039336 0.011112 0.0028363 -0.0034947 0.0093039 -0.0063119 0.0063956 -0.011464 0.001593 0.0075234 0.0066096 -0.0082488 0.0019784 0.0076198 -0.0025837 0.0035682 0.0058525 -0.0097913 -0.00032343 0.0061374 -0.0059676 -0.0038419 0.0065187 -0.00064107 0.004502 -0.0045884 -0.011876 -0.0079249 -0.0072902 -0.0024102 -0.0063661 0.0022434 -0.0014893 0.0086627 -0.0021864 -0.0049445 -0.0019153 0.0013483 -0.0043267 0.0029283 -0.0088563 -0.00076517 -0.00081791 -0.0090322 0.013266 0.0045884 -0.002806 0.0057217 0.00094049 
配套 -0.01398 0.0067012 -0.018064 -0.014259 0.0031331 -0.0065924 0.0035164 0.0074321 0.018002 0.0092347 0.0054557 0.012927 0.0049313 0.0054299 -0.017587 -8.9332e-05 -0.0058872 0.011068 0.0075556 -0.014244 -0.00049829 0.016224 0.008478 -0.014035 0.0099278 -0.0016763 0.017807 -0.0013309 0.005568 0.02206 -0.0053098 -0.012391 -0.014102 -0.015941 -0.016691 0.0021001 0.0032189 -0.01575 -0.0038017 -0.00501 0.019496 0.0043037 -0.0011981 0.0052695 -0.0035762 0.0077462 -0.0046085 -0.00070236 -0.0033791 0.013241 -0.018506 0.026198 -0.024376 0.0099149 -0.006402 -0.0073226 -0.0011867 -0.00085832 0.016154 0.0042278 -0.0026669 0.012301 0.018871 0.0027851 -0.014115 0.014584 -0.014665 0.017161 0.0071717 0.0091753 -0.025518 -0.0038267 -0.013636 -0.0019973 -0.0062511 -0.0050773 0.015884 0.017135 0.00028109 -0.017046 -0.022428 0.021214 0.0089594 -0.012668 0.0015068 -0.020346 -0.0049187 -0.00031597 -0.004857 -0.0099585 0.013832 0.0085066 0.021074 -0.026961 0.0031726 -0.013144 0.020396 0.01954 -0.016725 0.0026773 
橱柜 -0.02595 0.029994 -0.026999 -0.007171 0.0057722 0.0095097 0.0095341 -0.003702 0.035241 0.037992 -0.011249 0.0069833 0.013189 0.01764 -0.018255 -0.0026537 0.0009445 0.015901 -0.0047009 -0.029085 -0.012205 0.020716 0.021306 -0.0053561 0.017865 -0.0199 0.016141 -0.0078006 -0.013467 0.034886 -0.015199 -0.0070225 -0.026503 -0.031342 -0.038326 0.011658 0.010323 -0.025951 -0.018225 -0.0099728 0.033875 0.02497 0.017166 0.012149 -0.0083741 0.0033498 -0.015897 -0.0069585 -0.030081 0.0060683 -0.019356 0.032305 -0.025729 0.0037663 -0.007325 -0.020667 0.00058702 0.012776 0.010698 0.022713 -0.017965 0.0089868 0.016112 0.014955 -0.013939 0.013069 -0.018686 0.030561 0.025318 0.016165 -0.035169 0.0041259 -0.0062148 0.014389 -0.0050069 -0.017017 0.035201 0.032956 -0.0039291 -0.010732 -0.017315 0.029533 0.025256 -0.023744 -0.017798 -0.0164 -0.0095498 0.0055777 -0.014859 -0.011632 0.038383 0.017196 0.042468 -0.027863 0.0027535 -0.030389 0.028501 0.042584 -0.013057 -0.0057031 
及 -0.010677 0.014668 -0.01325 4.0594e-05 -0.00017774 0.0056225 -0.0011801 0.0050285 0.0090679 0.012213 -0.0062648 0.01085 0.013486 0.012925 -0.011884 0.0010797 0.0030526 0.0041249 0.0086864 -0.0097527 0.003496 0.0098745 0.0080477 -0.014298 -0.0051653 -0.0010924 -0.0023091 -0.008325 0.0051068 0.0082186 -0.0081599 -0.0059414 0.0013032 -0.0074787 -0.014764 -0.0010933 0.01071 -0.020098 -0.0012011 -0.013838 0.018572 0.0051605 0.0089847 0.0054231 0.003968 0.0032058 0.0021552 0.0040808 -0.0046754 0.0097509 -0.0078958 0.00023033 -0.0049415 0.010243 0.0061272 -0.0084461 -0.0050591 0.002724 0.0070213 0.010181 0.0031455 0.0066294 0.010883 0.0020739 -0.00064929 0.010448 -0.0032267 0.0077332 -5.2285e-05 0.011978 -0.0067884 0.0048701 -0.0031297 0.010292 0.0054726 -0.0031011 0.022617 0.0076553 -0.0095985 -0.014276 -0.01176 0.0091146 0.0092292 -0.015233 -0.0067617 -0.0074126 -0.0013598 -0.00027819 0.00063168 -0.0098611 0.013035 0.0040622 0.010485 -0.020089 -0.010566 -0.020068 -0.0010203 0.015829 -0.0044768 -0.0064705 
直 -0.0084896 0.006827 0.0010057 0.006064 0.0096523 -0.0031985 -0.0046379 -0.0032135 0.016161 0.0007683 0.0047744 0.012105 -0.002229 -0.00026479 0.0035414 0.0050195 0.0085997 0.011668 0.0053359 -0.0027463 -0.0082401 -0.0043092 0.006866 -0.00057513 0.0087502 0.00016723 -0.0041207 0.0058983 -0.0032731 0.0090973 -0.00098434 0.0068434 0.00208 -0.0065234 0.0035728 -0.00037237 0.0012335 -0.0058478 -0.0026921 0.0045007 -0.0034676 -0.0014738 -0.0031355 -0.0077018 -0.0040273 -0.0057674 0.0022705 0.0044604 -0.00806 -0.0033715 0.0027911 0.0084311 -0.00098178 -0.0011864 -0.0073577 -0.006736 0.0047176 -0.0034681 -0.0018571 0.010404 0.0062898 0.0044745 -0.00058038 0.0090743 -0.0083095 0.0031032 0.00097489 0.0071324 0.01445 0.009415 -0.011529 -0.0012711 0.0061739 0.00092421 -0.0025249 -0.0071168 0.006221 4.8692e-05 -0.0017418 0.0014361 -0.0083992 -0.0046935 0.010735 -0.0049494 -0.010981 -0.012788 0.0056402 0.0052668 -0.010416 -0.010233 0.015186 -0.0075042 0.0087539 -0.00316 0.0065345 0.001715 0.0083756 0.012633 0.0038921 -0.0031386 
角阀 -0.0034986 0.014321 -0.012799 0.0046348 -0.0073041 -0.0020824 -0.0043874 0.0035728 0.0040091 0.0014526 -0.01031 0.011558 0.0041592 0.0107 0.0012655 -0.0093108 -0.0063386 0.0047589 0.0019411 0.0039431 -0.0025222 0.0081049 0.0075388 0.002809 -0.0035296 -0.0033264 0.004729 -0.0065123 -0.0013203 0.017038 -0.003495 0.0038058 0.0049103 -0.012238 -0.00088156 0.0082246 -0.0042625 -0.0088527 -0.0069584 0.0033161 0.0077142 0.0019469 0.0060191 -0.0063874 0.0037619 -0.0053549 -0.0083708 -0.0060473 -0.0043891 0.0060142 0.0057108 0.011777 -0.003913 -0.0077914 -0.0020823 -0.013658 0.006319 -0.0059968 -0.00024632 0.0021696 -0.0035195 0.002154 -0.0050451 0.0036849 -0.0080255 -0.0018319 -0.0089852 0.0024202 0.0017947 0.0020614 -0.0050774 -0.00073463 -0.0071709 -0.0067321 0.0034047 -0.012217 -0.0028151 0.010417 -0.0088214 0.0019174 -0.0045728 0.0041175 0.0053915 0.0065477 0.0003349 0.0017583 -0.0053776 -0.0026443 0.0048925 0.0073579 0.013711 0.0029063 0.0079142 0.0023175 -0.0014551 -0.010254 -0.00083976 0.00080926 -0.011482 0.0023113 
管理 -0.006361 0.00010811 -0.0088524 0.0050337 0.0023169 0.0044911 0.0092221 -0.0094472 0.003045 0.0068831 0.00078872 0.00015156 0.0028794 -0.0011952 0.0036027 -0.0057304 0.0033845 0.011239 0.0053272 0.0011705 0.0073301 -0.0038897 0.0047032 -0.0049958 -0.0021291 -0.00013434 0.0021379 -0.011824 -0.0049221 0.0094151 -0.010335 0.0067742 0.0033017 -0.012079 -0.013937 -0.0091539 0.0018986 -0.013516 -0.0028134 0.0042646 0.0033584 0.0035753 3.6447e-05 0.000509 -0.0054925 0.0056378 -0.0094862 -0.012345 -0.0034356 -0.00037699 0.00094655 0.0060066 -0.011233 0.0054687 0.0038746 -0.01246 0.0019724 -0.0055002 0.0034359 -0.0037837 -0.0055086 0.0012886 0.010195 0.006665 -0.01093 0.009409 0.0046049 0.013891 0.014529 0.0099992 -0.015501 -0.0011936 0.004333 0.0075038 -0.0071324 -0.0066114 0.00080774 0.0028185 0.005482 0.003959 -0.002154 0.0051878 0.015935 -0.012224 -0.0045414 -0.003029 0.0089 -0.0061727 -0.0062581 -0.0083126 0.016018 0.0092278 0.009568 -0.0096267 0.0081191 -0.011548 -0.00020966 0.010292 -0.0089668 -0.0056859 
房屋 0.00057943 0.0060822 0.0036153 0.0047135 -0.0029188 0.0050056 -0.0019413 0.0032105 0.0024702 0.013446 -0.011607 -0.0034793 0.0099103 0.004863 -0.0080963 0.00043944 0.0047182 0.0062547 0.0062226 -0.013541 -0.010408 0.010949 -0.0034135 0.0016004 0.0034608 0.003744 0.0016099 0.0007336 -0.010694 0.0070272 -0.011962 -0.006595 -0.0034519 -0.014974 -0.015278 -0.0023889 -0.0010189 -0.0098528 -0.0043487 0.0040086 0.0019678 -0.0036882 0.0097964 0.0045769 0.0033389 0.005005 0.0031529 -0.012329 -0.0046882 0.0075786 0.002104 0.014533 -0.015602 0.0040156 -0.001473 -0.0039554 0.00021707 -0.007017 0.0038779 0.0036272 0.0048856 0.0093289 -0.00592 -0.00050907 0.0059495 0.0013934 -0.011584 -0.00040925 0.0055424 0.0084734 -0.016459 -0.0067587 0.0039966 0.0057891 -0.0047935 -0.0076462 0.016977 0.0015142 0.0078961 -0.012538 -0.00041217 0.0013631 0.0072128 0.0027376 -0.0038928 0.00089479 -0.00025972 -0.003449 0.00040232 -0.012354 -0.0010639 0.0070202 0.0058919 -0.0087541 0.0064324 -0.0061925 0.01117 0.0040696 -0.013427 -0.0080458 
咨询 0.0021348 0.0044117 -0.012942 0.0036454 7.5755e-05 -0.0043142 0.00090303 -0.004086 0.017904 -0.0013966 -0.0030344 -0.0033285 0.013651 0.0083848 -0.0056525 -0.0057374 0.0080889 0.0089679 -0.007964 -0.0027172 -0.0026748 0.0017032 0.0054594 -0.011239 -0.0032733 -0.0051913 0.0081925 -0.00022894 0.0051751 0.0033235 0.0012682 0.0052905 0.0036552 -0.015438 -0.018444 -0.0039343 -0.0040919 -0.00054586 -0.011034 -0.01046 0.015231 -0.0044888 0.011745 2.1064e-05 -0.00095572 -0.0070176 0.0011949 0.0051357 -0.015099 0.0013077 -0.005557 0.0079057 -0.0062219 0.0033012 -0.0010168 -0.013582 -0.0057841 -0.0036157 -0.0017668 0.0033945 -0.0097413 0.0029597 0.0087373 0.0047011 -0.0095392 -0.0017391 -0.00547 -0.0022844 0.0095284 -0.0056319 -0.014803 -0.0053668 0.005778 -0.00494 0.0018362 -0.0078264 0.0067372 0.0021602 -0.0073796 -0.00075351 0.0026003 0.011894 0.014962 -0.009507 -0.0066181 -0.013817 -0.0061254 0.0046841 -0.012138 0.0055447 0.0050903 0.012136 0.013951 -0.0097215 -0.0054927 -0.0018025 0.011096 0.015469 -0.006135 -0.0079449 
农作物 -0.031067 0.01217 -0.028142 -0.0014199 0.0011371 0.010162 0.012865 0.0066126 0.023699 0.029113 -0.0044046 0.0024666 0.0094046 0.011441 -0.013772 -0.009718 0.006824 0.019563 0.0074975 -0.028484 -0.014774 0.011096 0.014147 -0.0096023 0.008236 -0.024774 0.01664 -0.004743 -0.012215 0.033278 -0.0041435 -0.011181 -0.011946 -0.024863 -0.029071 0.0037981 0.01733 -0.026593 -0.010424 -0.021658 0.021095 0.022532 0.0042086 -0.0023305 -0.014907 0.00067961 -0.0032698 -0.0059523 -0.026801 -0.00091312 -0.025731 0.01657 -0.016147 0.013837 0.01018 -0.011556 0.0019662 0.0091177 0.012019 0.014321 -0.018334 0.023065 0.017822 0.023035 -0.014908 -3.1334e-05 -0.0085093 0.0173 0.018308 0.0062203 -0.019864 0.013385 -0.0098918 -0.0028366 -0.0086983 -0.0041417 0.041608 0.032862 -0.0058409 -0.0071266 -0.015265 0.010154 0.019019 -0.0092169 -0.0014525 -0.020136 -0.011284 0.0046125 -0.013251 -0.019238 0.022883 0.013015 0.027931 -0.030023 0.0018034 -0.021589 0.017624 0.023009 -0.021415 -0.0053746 
厨房 -0.024361 0.011999 -0.02049 -0.01385 0.013696 -0.0045071 0.015507 0.0056078 0.017592 0.011999 -0.0044817 -7.7234e-05 0.015656 0.015001 -0.015514 -0.012392 0.001142 0.0038973 0.001635 -0.0079131 0.0012006 0.018027 0.012654 -0.011313 0.015826 -0.0090846 0.003285 -0.01599 -0.0033561 0.031865 -0.0089242 0.00028942 -0.022807 -0.015435 -0.021212 -0.0027568 -0.0040893 -0.019966 -0.0013543 -0.0014299 0.014683 0.0070294 0.0073409 -0.00077333 -0.017007 -0.0097635 -0.008735 -0.0061609 -0.021225 0.0063353 -0.0076617 0.015994 -0.017497 0.002202 0.011586 -0.016668 0.0024091 0.0071175 0.011309 0.014047 -0.0028068 0.015546 0.002867 0.011083 -0.011502 0.0012798 -0.005939 0.005336 0.010833 0.0052767 -0.025453 0.008608 -0.00545 0.0049912 -0.0027202 -0.0020621 0.01695 0.015269 0.00078925 -0.0079065 -0.018868 0.011705 0.013334 -0.022545 -0.012183 -0.015579 0.0043523 -0.0066669 -0.0090882 -0.0072274 0.023762 0.014523 0.02999 -0.01065 -0.00099077 -0.017984 0.012743 0.018254 -0.011518 -0.0073008 
合作 -0.0013951 0.011572 0.0056683 -0.0085778 -0.0065243 0.008663 0.0063361 0.0099113 0.003204 0.0028121 0.005608 -0.0022486 0.0060778 -0.0052255 -0.0086221 0.0080128 -0.0064575 0.0091283 -0.00083544 0.0029683 -0.003532 -0.0064953 0.010786 0.0032293 0.0095577 0.0030078 -0.0059835 -0.0001961 -0.0082489 0.0097393 -0.0099223 -0.0022814 -0.011571 -0.0053445 -0.0022768 0.0094765 0.010609 -0.010095 0.0079667 0.0063131 -0.00011584 0.0040319 0.0043183 0.0095604 0.00088083 0.0058959 -0.0048397 5.3951e-05 0.00024549 0.0070728 0.00064584 0.0095118 0.0052503 0.0083449 0.0089796 -0.0081811 -0.0043313 0.0083005 0.0031394 0.0074993 -0.00082066 -0.0070178 0.0032294 -0.0054543 -0.0017924 -0.0036258 -0.008776 0.009704 0.0010767 -0.0059493 -0.0025583 -0.0083084 -0.0061502 0.0010297 -0.010402 -0.0065812 -0.0010388 0.0049396 0.0067932 0.0037583 -0.001686 0.0036592 0.010689 0.0041859 0.0050495 0.0016069 0.0059004 0.0061978 0.0055156 0.0011816 0.0091861 0.010589 0.008506 -0.014135 -0.0065406 -0.0052353 -0.0022875 0.00059517 0.0023611 -0.0039064 
床上 -0.0099951 0.0022651 0.00060241 -0.00092048 0.0095264 0.0010779 -0.0071611 0.0066008 0.012106 0.0018344 -0.0014676 0.0027446 0.0087079 0.012637 -0.0093021 -0.0080456 -0.00068128 -0.00091448 0.00042056 -0.012897 -0.0084065 0.0019524 -0.00028555 0.006394 -0.0075414 -0.0042691 -0.0068213 -0.00060064 -0.0089789 0.014223 0.00014643 0.00098817 0.0062331 -0.0077472 -0.0049364 -0.0032251 0.0016658 -0.010017 -0.01044 0.0075678 -0.0014855 -0.002606 0.0099077 0.0018366 -0.00013764 -0.00027991 -0.0067144 -0.0046749 -0.0043154 -0.0076462 -0.0035978 0.0049275 -0.01145 -0.0058149 0.0096304 -0.0074495 0.0032513 0.0079403 0.0070928 -0.004351 0.0053417 0.0035403 0.0092629 0.006564 0.0061707 0.0049716 -0.005219 0.0007098 -0.0046012 -0.0065935 0.0031589 0.010539 0.00054661 0.010886 0.0030098 -0.0053593 -0.00035224 0.0033701 0.0028828 -0.01072 -0.0061356 0.01038 -0.0046543 0.001165 -0.0072467 -0.0046512 -0.0037386 0.006673 -0.0079265 -0.00070412 0.010268 -0.0046415 0.0091831 -0.0010809 -0.0082432 -0.013967 0.0081746 -0.001897 0.0030528 -0.00019005 
项目 -0.011024 0.0095179 -0.0029711 -0.0041599 -0.0084152 0.0072973 0.0012066 0.0038241 0.0077195 0.013143 -0.010863 -0.0053393 0.0051678 -0.0071059 0.0074659 0.006657 0.0091807 -0.005567 -0.0012811 0.0036095 0.0073745 -0.0072733 0.0013004 -0.0046269 -0.0078577 -0.0052873 0.011245 -0.0042688 0.00025511 0.0042656 0.0077293 0.0014027 -0.0089789 -0.0014893 -0.0011203 -0.0095318 0.0071514 0.0039523 -0.0029504 -0.007437 -0.00070327 -0.0076911 -0.0013961 -0.0056812 -0.0085875 0.0075753 -0.003589 -0.0071437 -0.009455 0.0074483 -0.011776 0.0022341 -0.0016501 0.0075428 -0.0061682 -0.0097587 -0.002739 0.0021571 -0.0044533 0.0057796 -0.0091896 -0.0015804 0.0057635 -0.0066885 -0.002153 0.0034512 0.002762 -0.0048194 -0.0055103 -0.00025231 -0.0030861 0.010143 0.005091 -0.0018002 0.0034943 0.0012134 0.0099973 -8.0031e-05 -0.00048915 -0.010011 -0.0021892 0.0072976 -0.0017279 -0.008693 0.0030936 -0.0016406 0.0020704 -0.0090871 -0.010416 0.0047511 -0.005356 0.0067502 -0.0025075 0.0044433 0.0071712 0.0037063 0.0026217 0.0055561 -0.0065795 0.0059556 
乡村 -0.012136 0.0054162 -0.00042321 0.0088374 0.0085957 0.003923 -0.0077678 0.0062771 0.0024695 0.0077384 -0.0092665 -0.0056066 0.012399 0.0046855 -0.010749 -0.010471 0.0027036 0.0090213 -0.0051726 -0.00031056 -0.009615 -0.0042528 0.010955 -0.0077577 -0.00072569 0.0029193 0.0050233 -0.0085864 -0.0071372 0.013607 -0.0014676 -0.0054376 0.0064129 -0.01114 0.0012427 0.0027313 -0.00095697 -0.0049103 -0.0040064 -0.0068571 0.0076043 0.0046635 -0.0051904 -0.001714 0.0028546 -0.0011283 0.0031639 -0.0015678 -0.0019332 -0.0061718 -0.0084125 0.003056 -0.011009 0.0059281 -0.0069028 -0.0027022 0.0032615 0.0084584 -0.0056169 -0.0029369 -0.0085059 -0.0020558 0.0067731 0.0035759 0.0075314 0.0047198 0.00097267 -0.0054401 0.0077889 -0.00026308 0.0038785 0.0017137 -0.0049616 -0.0055296 -0.0047235 0.0081403 0.0010352 9.7709e-05 -0.0071658 0.00067807 -0.011552 0.0087736 0.011437 0.0040542 0.0071454 -0.012117 0.0072072 0.0031563 -0.0020807 -0.0065479 0.0091112 0.010634 0.0065047 -0.0067378 -0.004363 -0.0041748 0.012013 -0.0035349 -0.0031976 0.0082358 
资源 -0.011541 -0.006424 -0.01088 0.0043619 0.0074437 0.0081351 -0.0050279 0.0077636 0.0023891 0.0042435 -0.0015509 0.0086935 -0.0027437 -0.00022311 -0.0025245 0.0010458 0.0055657 0.008739 -0.0012959 -0.012232 -0.010416 0.001858 0.0086546 0.0047413 -0.0067173 -0.011237 -0.0016263 0.0069296 -0.0042844 0.0055152 -0.0045209 0.0053588 -0.0059524 -0.0035405 -0.0067037 0.0073357 0.0047272 -0.00468 -0.0027973 0.0057016 0.007487 0.0024418 0.00076975 -0.0032266 0.0031258 -0.0064969 0.0019557 -0.008523 0.0019818 0.010372 0.0043966 0.012693 -0.0067333 0.0080216 -0.0025882 -0.012035 -0.0022116 -0.0075525 -0.0025848 -0.0038717 -0.0057678 -0.0001876 0.0043715 -0.0020737 0.0024914 -0.0060154 0.0043587 0.0045291 -0.0041279 -0.0028396 0.0040922 -0.0018012 -0.005034 0.0060163 0.0059086 -0.0077665 0.0087479 -0.0034152 0.0036897 0.0048571 -0.010714 0.0084018 -0.0012796 7.3256e-05 -0.0017822 -0.0065368 -0.010141 -0.0067 -0.0051691 0.0015036 0.0078993 -0.0079387 0.010144 0.004961 0.0093807 -0.0041501 -0.0053866 -0.0047318 0.0043628 0.0074705 
休闲 0.0045586 -0.0014144 0.006203 0.0036149 -0.0041042 -0.0049805 -0.0067482 0.0052216 0.0016241 -0.00092488 0.0065128 0.0038283 -0.0062333 -0.006347 0.0048714 0.0054546 -0.0034239 -0.0031866 0.0059902 -0.010515 0.0064923 0.0063463 0.0030471 -0.0012366 -0.00070103 -0.0049352 0.011149 -0.0036916 -0.0097976 0.01147 -0.011175 -0.00035277 -0.012373 -0.012917 -0.012969 -0.0086469 -0.0057938 -0.00099447 -0.00064379 0.0034003 0.0036792 0.0010472 0.0066778 -0.007336 -0.0060335 -0.00029842 0.0024598 0.0011032 0.0038201 0.00052204 -0.0069372 0.0021328 -0.0047986 0.0089183 -0.00064329 -0.0077664 -0.0018745 -0.0083085 -0.0026795 -0.0013434 0.0073575 -0.0015049 0.0058802 0.0041609 -0.010266 0.0067134 0.0032763 -0.0015147 0.0073829 -2.8274e-06 0.0042012 0.0089686 0.0031638 -0.003215 -0.0053281 -0.0040947 -0.00515 -0.0027218 0.0050467 -0.0096167 -0.01006 -0.0046314 -0.0043406 0.0047104 0.0032731 -0.0072842 -0.0048866 0.0084682 0.0062803 -0.0048076 -0.0016881 0.0045596 -0.0059435 -0.00059892 0.0044373 -0.0099157 0.0018768 0.0066153 -0.010757 -0.0026249 
观光 -0.0033295 0.007223 0.0026961 -0.0042446 0.00054282 -0.0033828 -0.0054053 0.0096747 0.0011506 -2.8734e-05 -0.0086467 0.0038446 0.003977 0.00086729 -0.010022 -0.00036135 0.0093259 -0.0038126 -0.0040162 -0.0046822 0.0071435 -0.0059328 -0.0058032 -0.0017034 0.0096601 -0.0054637 -0.0018403 -0.0078317 0.0074186 0.013152 -0.0063996 -0.00152 0.0013376 -0.0060488 0.0014158 -0.002786 -0.0032347 -0.0040574 -0.0019115 -0.010364 0.0012743 -0.0054007 0.0017557 -0.0020084 0.0081482 0.0028297 0.0082704 -0.0016976 0.0055568 -0.0056505 0.0034873 0.0054896 -0.012121 -0.0021385 -0.0011557 0.00199 0.0047778 0.0043355 -0.0028682 -0.0016746 -0.003407 -0.00082165 0.0081522 0.0062035 0.0058629 0.0036707 -0.0002357 -0.0043433 0.0038011 0.0080831 -0.0028199 0.0075611 -0.0015695 0.00055509 -0.001448 0.006772 0.0044016 0.010553 -0.0047221 -0.0028768 0.00098686 -0.0030072 0.0068671 0.0015671 -0.0073866 0.007619 0.0018666 0.0035422 -0.008764 0.0016652 0.0099279 -0.0014596 0.011441 -0.013057 0.0072423 0.0049267 0.010631 -0.0026385 -0.0014276 0.0044384 
活动 -6.9372e-05 0.0043817 -0.0064346 0.0038723 0.00075457 0.0088982 -0.0071714 0.00065748 -0.0049714 0.010633 -0.0083653 -0.0056786 -0.001693 0.0055058 0.0022741 -0.002838 0.00090945 0.0038976 -0.0095939 0.0046455 -0.0071171 -0.0010749 -0.0054814 -0.0044932 0.001994 -0.0076338 0.011963 -0.0091696 -0.010275 0.0032302 0.0011985 -0.0031397 -0.0064671 -0.0038658 0.00051595 0.0070346 0.0014157 -0.0082965 0.0076179 -0.0058725 0.0051247 0.0094873 -0.0019153 -0.0074807 -0.0017031 0.0047426 -0.0048093 0.0067867 0.0043357 0.0023626 0.0066212 -0.0045224 -0.0021799 0.010772 0.0054443 -0.004636 0.00017444 -0.00050172 0.0065018 0.0020388 0.0011614 0.00011771 -0.0074321 -0.0037627 0.00079282 -0.0085068 -0.0085704 0.011527 0.0059067 0.0065532 -0.0011342 0.010383 -5.1325e-05 -0.0031344 -0.01009 -0.0033054 -4.3702e-05 -0.0023134 0.0073842 0.0037182 0.0034706 0.0079131 -0.0022053 -0.0061227 -0.0051091 0.0057221 -0.0095666 0.0061353 -0.0039787 -0.0063035 0.0030402 0.009377 0.0070849 -0.012018 -0.0060375 -0.0049065 0.0057757 -0.0027475 -0.010052 -0.0017546 
多功能 -0.0054327 -0.0027066 -0.0060896 0.0020699 3.5692e-05 0.00039271 0.01153 -0.00057961 -0.0040757 0.0063381 -0.0034264 0.005944 0.004965 -0.0044806 0.0032197 -0.0087848 0.00086934 0.00080106 -0.0083836 -0.012158 -0.0073197 -0.0024953 0.00010787 0.0021676 -0.0055983 -0.0051319 0.002586 -0.0095694 -0.0069946 0.002739 -0.0081787 -0.007266 -0.0091313 -0.0090376 0.005246 -0.0034916 -0.0074311 -0.0029539 0.00032662 -0.002513 0.0034127 0.0088417 -0.0056042 -0.00042119 -0.01081 0.008388 -0.0021763 -0.0003805 0.0017186 0.001423 -0.0042025 0.0039555 -0.0043873 0.0049419 -0.0045302 -0.0034795 -0.0013945 0.0035903 -0.00028212 0.01179 -0.011633 0.0073074 -0.0034752 -0.0032682 -0.0054079 0.0030014 0.0032257 0.0023613 0.0091532 -0.0028745 0.0048989 -0.0028652 0.0066324 -0.00019586 -0.005592 -0.00072687 -0.00071291 0.0025903 0.0071813 0.0070761 -0.0059319 0.013211 -0.0049011 0.0068107 0.0042243 -0.0082792 -0.0033872 0.0057296 -0.0091045 -0.0050917 0.013114 0.0015645 0.012804 -0.01209 0.0011272 -0.007094 0.00022799 0.00067364 -0.0036259 -0.0040765 
鞋盒 -0.0087311 0.013562 0.0060389 -0.0019105 0.011571 0.00037848 0.0098012 0.00091903 0.0078694 -0.005443 -0.0072636 -0.00085964 0.0094124 -0.0057782 -0.0085389 0.0020895 0.0058348 0.012982 0.0043632 -0.011284 0.0032588 0.0061118 -0.0017221 -0.0048316 0.0096865 -0.0014163 0.010344 -0.005597 0.0080482 0.0056232 -4.5023e-05 -0.0049723 -0.00092822 1.3581e-05 -0.0033265 0.0064266 0.0036852 0.0052356 -0.004017 -0.008658 0.0020788 -0.0049747 0.010086 -0.00079462 0.00038976 -0.00026275 -0.010827 0.0047341 0.0031046 0.0055055 0.0054102 0.003295 0.0032413 0.00040239 0.003951 -0.010215 -0.0014379 0.0071854 0.0095155 0.00425 0.0023051 0.010922 -0.0036952 -0.0039335 -0.0073767 -0.0033473 0.0065228 0.0035277 4.5007e-06 -0.0036204 -0.007584 0.0092548 -0.0074063 0.00022077 -0.0064805 0.004761 0.010383 0.0055032 0.009997 -0.010903 0.0027509 0.0029555 -0.0045696 0.0056563 -0.0015726 -0.0094888 -0.0037131 0.0050978 0.0025137 0.00095556 0.00021136 0.0070118 0.00066919 0.00024465 0.0084218 -0.0063658 0.011224 0.01068 -0.0042472 -0.0095649 
纺织 -0.003803 0.013437 -0.00075931 -0.0023593 -0.0068191 -0.0050231 -0.001667 0.0045101 0.011093 0.0097848 -0.00459 -0.005233 0.006829 0.0040882 -0.003398 -0.0031868 -0.0091929 0.0023029 0.0066879 0.0032964 0.0048175 0.004603 -0.0031996 -0.0099715 -0.0048721 -0.0010454 0.012045 -0.0045367 -0.00069689 0.01284 0.0036615 0.0031156 -0.0040513 -0.0077312 -0.001351 -0.0078392 -0.0079095 -0.0071138 -0.00049563 -0.011274 0.0036149 0.002661 -0.0074146 -0.0057813 0.0030636 0.0080689 -0.0021796 -0.010345 0.0011061 0.0040508 -0.0070393 0.011754 -0.0093059 -0.0063874 0.0080388 0.0029328 -0.007351 0.011173 -0.00016947 0.004705 -0.012239 0.013937 0.0065431 0.013227 -0.0031707 0.00813 -0.00034174 -0.0049678 0.0046082 0.0081654 0.00019961 0.0080915 0.0062329 0.0094254 -0.0061175 0.0061917 0.016224 2.7823e-05 0.0061871 -0.0019486 -0.0084042 -0.004267 0.011905 -0.0005346 -0.0039222 0.00028085 -0.0074396 -0.0059982 -0.0087236 -0.00013057 -0.00072088 -0.0022845 0.012933 -0.0087721 0.0015393 -0.008278 -0.0019966 0.0016527 -0.0090413 -0.0089175 
面料 -0.015005 0.01507 -0.0072145 -0.0085046 -0.0040874 -0.0067761 0.0018082 -0.001129 0.0026888 -0.0028233 -0.0036066 0.0097199 0.0042302 0.005679 -0.0039796 -0.0082097 -0.0035123 -0.0015876 -0.0072601 -0.010137 -0.0073646 -0.00085845 0.010803 0.0064676 -0.0074848 -0.011542 -0.0019756 -0.010163 -0.0049488 0.013289 0.0033677 -0.0069518 -0.012036 -0.0081233 -0.0018546 -0.0083322 0.0013935 -0.0014937 -0.010167 0.0058784 0.01392 -0.0019164 0.011652 0.00037821 -0.0040518 -0.0047573 -0.0051816 0.0060579 0.00077902 -0.0079169 -0.0079328 0.0059853 -0.01065 0.00056273 0.0089288 0.001738 0.006026 0.012219 0.010101 0.0016955 -0.0084044 -0.0058941 0.0068975 -0.00033428 -0.011614 0.0017606 -0.011833 0.0023838 -0.0035016 0.012667 -0.011042 -0.0032249 0.0071549 0.0023179 -0.0036739 -0.0034587 0.0032195 0.0067164 0.0033867 0.0042012 0.0022002 0.0055322 0.0094485 0.0016434 -0.011128 -0.0027732 0.0033418 0.0045332 -0.012224 -0.001861 0.008058 0.0051103 -0.0019356 -0.0070353 0.002435 -0.0091434 -0.0026027 0.01422 -0.008452 -0.0097378 
